#pragma once

#define MODEL_INPUTS 784
#define MODEL_HIDDEN 64
#define MODEL_OUTPUTS 10
#define MODEL_THRESHOLD 128

static const float fc1_weights[50176] = {
    2.49446556e-03f, -2.15140581e-02f, 1.13722645e-02f, 1.12064481e-02f, -1.90884601e-02f, -5.35275787e-03f, -2.09224280e-02f, 9.26688313e-03f,
    -9.62027535e-03f, 2.50905976e-02f, 2.53530852e-02f, 3.63823026e-03f, -1.52257867e-02f, 8.75351764e-03f, 3.77682447e-02f, -1.00510046e-02f,
    1.57414600e-02f, -3.04962918e-02f, 3.35656889e-02f, -2.80152485e-02f, 2.73484029e-02f, -6.20194897e-03f, 1.83710344e-02f, 1.39176808e-02f,
    1.49500370e-03f, 6.65937364e-03f, 2.71217264e-02f, 9.18493420e-03f, 1.89481229e-02f, -2.76271030e-02f, 2.54244953e-02f, 1.22917555e-02f,
    9.04646888e-03f, 4.93376330e-03f, 5.81030510e-02f, 1.09282941e-01f, 4.33916226e-02f, 6.73984364e-03f, 4.11001109e-02f, 5.31163029e-02f,
    1.25996649e-01f, 4.94511016e-02f, -2.04925705e-03f, 7.21194521e-02f, 1.74612403e-01f, 5.51045425e-02f, 3.68033312e-02f, 8.94382372e-02f,
    9.98752117e-02f, 2.95796338e-03f, 1.05608106e-02f, 6.50628656e-02f, 3.52585800e-02f, -2.12232023e-03f, -2.82197352e-02f, 9.75824893e-04f,
    -1.66149829e-02f, -6.86608255e-05f, 1.74808502e-02f, 1.58098079e-02f, 5.17649483e-03f, 3.93199548e-03f, 8.35739002e-02f, 8.04796591e-02f,
    7.54185393e-02f, 1.54553950e-01f, 1.83754072e-01f, 1.06577925e-01f, 1.21550068e-01f, 6.14536963e-02f, 8.05609748e-02f, 7.09146857e-02f,
    9.43282768e-02f, 4.69095185e-02f, 6.49438724e-02f, 8.05228278e-02f, 9.82427970e-02f, 7.71690235e-02f, 8.73462483e-02f, 5.52398972e-02f,
    1.19531199e-01f, 2.22228263e-02f, -9.82419588e-03f, -6.17383607e-03f, -1.46954618e-02f, -8.83933157e-03f, 5.76413199e-02f, 1.95962153e-02f,
    1.98584050e-03f, -2.25981548e-02f, -4.11048606e-02f, -2.36060917e-02f, 1.91176720e-02f, 1.16751194e-01f, 2.48746537e-02f, 3.56712900e-02f,
    1.99758969e-02f, 8.50613639e-02f, 3.26978751e-02f, 5.38147800e-02f, 2.32828711e-03f, -1.36268372e-02f, -3.14176865e-02f, 3.69395292e-03f,
    -4.27419320e-02f, 3.15280743e-02f, 1.02796607e-01f, 4.55912910e-02f, 5.03897555e-02f, -2.85653751e-02f, -9.62277874e-03f, 2.27683447e-02f,
    8.51153210e-03f, 8.81105661e-04f, -3.74589153e-02f, -2.68363580e-02f, -4.34539840e-02f, -9.13894176e-02f, -6.51745275e-02f, -9.49271675e-03f,
    -5.32288523e-03f, 2.37071747e-03f, 5.18625975e-02f, -3.60873295e-03f, 4.22460847e-02f, 1.88879985e-02f, 1.22029679e-02f, 1.71218999e-02f,
    2.53376011e-02f, 7.88623169e-02f, 1.11509785e-02f, -8.69385141e-04f, -1.12000271e-05f, 4.00478877e-02f, 7.27047473e-02f, 8.27386156e-02f,
    -3.39484587e-02f, -2.93577872e-02f, -2.76491903e-02f, -7.30661489e-03f, -5.85445762e-03f, 1.23613775e-02f, 4.59458306e-03f, -3.54168899e-02f,
    -9.03968066e-02f, -1.54341131e-01f, -6.66265190e-02f, -8.96628350e-02f, -1.20440274e-02f, -2.93661952e-02f, -9.10202507e-03f, 5.32369362e-03f,
    -2.08259211e-03f, 8.59340057e-02f, 1.10399291e-01f, 3.40879820e-02f, 2.85534840e-02f, 1.13652781e-01f, 1.39766932e-01f, 2.19690967e-02f,
    4.09746952e-02f, 6.38249144e-02f, 3.19100395e-02f, 8.46177619e-03f, 7.74188191e-02f, -6.66620135e-02f, -1.05260797e-02f, -1.89636871e-02f,
    2.68585645e-02f, 6.89575449e-03f, -1.37603690e-03f, -7.81168565e-02f, -2.45654886e-03f, -8.51260126e-02f, -1.50033161e-01f, -8.15298483e-02f,
    -1.33992597e-01f, -8.17347690e-02f, -5.26306964e-02f, -4.86457869e-02f, 4.15375195e-02f, -4.34874697e-03f, 1.67419277e-02f, 1.81530286e-02f,
    2.87584104e-02f, 5.66054843e-02f, 4.11560722e-02f, 5.82087263e-02f, 4.00652885e-02f, 1.70939751e-02f, 7.75855826e-03f, 1.68889407e-02f,
    2.49844342e-02f, -6.63399622e-02f, -3.43396771e-03f, -1.97144388e-03f, 1.21270120e-02f, -2.71135271e-02f, 4.43673022e-02f, -1.02442786e-01f,
    -4.13055867e-02f, -1.13486990e-01f, -1.06075518e-01f, -1.52430013e-01f, -1.26646698e-01f, -6.12493940e-02f, -5.06411865e-02f, -3.33190523e-02f,
    -3.65264453e-02f, 2.93815788e-02f, -6.57404680e-03f, 3.65905254e-03f, 1.30278543e-02f, 6.33829087e-02f, 4.73338328e-02f, -1.36746522e-02f,
    1.43973976e-02f, -1.09526664e-02f, 4.25622845e-03f, -6.47162795e-02f, 2.91905310e-02f, -1.77501445e-03f, -6.89928513e-03f, -9.25785489e-03f,
    7.79893994e-03f, -3.24998721e-02f, -5.03683323e-03f, -8.29224065e-02f, -1.47431985e-01f, -1.63632125e-01f, -1.62347063e-01f, -1.14674509e-01f,
    -7.70640820e-02f, -4.56943028e-02f, -1.87567510e-02f, -1.31665170e-02f, -1.21994708e-02f, -1.36246188e-02f, 4.13572937e-02f, -1.26246838e-02f,
    -1.45660536e-02f, -1.87593196e-02f, -5.10840230e-02f, -2.90075187e-02f, -6.44533709e-02f, -1.27628846e-02f, -8.85833651e-02f, -8.36419538e-02f,
    -3.99613678e-02f, -3.59580703e-02f, -1.33360922e-01f, -4.66694012e-02f, -2.18374282e-02f, 1.52415363e-02f, -9.42318738e-02f, -6.36213720e-02f,
    -8.12385976e-02f, -1.17625520e-01f, -8.36877748e-02f, -6.23934455e-02f, -8.62087309e-02f, 9.95455682e-03f, 2.52608582e-02f, -1.62967537e-02f,
    5.04666977e-02f, 6.81924596e-02f, 1.64076053e-02f, -3.26052979e-02f, -2.00184211e-02f, 1.83395874e-02f, -2.18141209e-02f, -5.84535226e-02f,
    -7.03803599e-02f, -1.80609301e-02f, -1.31993696e-01f, -5.52296042e-02f, -1.43957054e-02f, -1.48617521e-01f, -1.04535513e-01f, -2.49500759e-02f,
    2.85961921e-03f, 1.97059531e-02f, -4.41303365e-02f, -9.35219303e-02f, -8.44482929e-02f, 1.66460720e-03f, -7.99832400e-03f, -5.92954867e-02f,
    3.73409241e-02f, 4.79712449e-02f, 6.43219724e-02f, 4.66339663e-02f, 1.72214694e-02f, -3.44851725e-02f, -1.09710984e-01f, -1.09830029e-01f,
    -1.32273689e-01f, -3.87262106e-02f, -9.50258896e-02f, -4.67362292e-02f, -1.25064999e-02f, -2.14105472e-02f, -5.30293658e-02f, 8.17064475e-03f,
    3.80606242e-02f, -1.09707952e-01f, -1.07302889e-01f, -7.88562968e-02f, -3.56873870e-03f, -5.88621311e-02f, -3.28056253e-02f, -5.75002059e-02f,
    -7.30786249e-02f, 5.41266911e-02f, 7.20482990e-02f, 5.59518337e-02f, 3.52505296e-02f, 8.35222602e-02f, 2.63173804e-02f, -4.73187417e-02f,
    -7.50701949e-02f, -1.43228695e-01f, -1.94528386e-01f, -2.41233572e-01f, -1.94915324e-01f, -1.81314081e-01f, -1.10412210e-01f, -4.95685404e-03f,
    2.26923432e-02f, 3.86899859e-02f, 1.56004180e-03f, 1.58764515e-02f, -2.78387647e-02f, -1.44362390e-01f, -1.10499725e-01f, 2.15343256e-02f,
    -2.72018611e-02f, -4.19346653e-02f, -7.02077672e-02f, -9.27198604e-02f, -1.50101846e-02f, 8.13545138e-02f, 1.21952787e-01f, 3.54849882e-02f,
    2.20431443e-02f, 1.47464154e-02f, 1.42809949e-04f, -4.15288694e-02f, -1.19475029e-01f, -7.46223256e-02f, -1.82378739e-01f, -2.14359477e-01f,
    -2.16854557e-01f, -1.21945128e-01f, -1.08229741e-01f, -1.38051051e-03f, 4.52461913e-02f, 8.82304609e-02f, 5.44220246e-02f, 5.00179492e-02f,
    7.27911219e-02f, -2.22777650e-02f, -8.82805884e-02f, 1.17981192e-02f, 1.38959214e-02f, -1.11740688e-02f, -1.04469813e-01f, 4.42884490e-03f,
    -3.78534794e-02f, 1.93419922e-02f, 1.01738654e-01f, 9.13926288e-02f, 1.27790838e-01f, 3.40642184e-02f, 5.99637218e-02f, -2.50235200e-04f,
    -4.31340411e-02f, -3.22495215e-02f, -7.28646815e-02f, -1.19308777e-01f, -1.45734444e-01f, -8.27167258e-02f, -1.67607218e-02f, 4.50998433e-02f,
    9.34871510e-02f, 8.27757195e-02f, 5.90512864e-02f, 8.74521658e-02f, 5.38141318e-02f, 9.59032923e-02f, 7.20105544e-02f, 5.17893322e-02f,
    -2.23993883e-02f, -3.33762690e-02f, -1.54153199e-03f, 8.64690170e-03f, 6.15646355e-02f, 6.65831044e-02f, 7.24370182e-02f, 1.52897701e-01f,
    1.02616496e-01f, 1.32295191e-01f, 8.97397175e-02f, 8.88409987e-02f, 5.65557033e-02f, 3.73742096e-02f, -7.62588978e-02f, -5.78209609e-02f,
    -5.11508361e-02f, -9.29372478e-03f, 1.82996970e-02f, 1.66725814e-02f, 5.42200133e-02f, 9.60379243e-02f, 5.28201684e-02f, 5.42931305e-03f,
    9.26083028e-02f, 1.07721753e-01f, 1.28403470e-01f, 4.12866101e-03f, -2.07324121e-02f, -3.72319184e-02f, -8.00401196e-02f, 7.65381679e-02f,
    6.73521608e-02f, 6.43439442e-02f, 1.07649475e-01f, 1.70817778e-01f, 1.13918670e-01f, 1.60569876e-01f, 1.15526766e-01f, 1.40095055e-01f,
    1.09409653e-01f, 6.06591143e-02f, -6.38151774e-03f, -2.48486735e-02f, 3.41791585e-02f, 7.56187644e-03f, 4.25898377e-03f, 3.58738042e-02f,
    6.67280480e-02f, 2.97695920e-02f, -3.37772593e-02f, -4.08038348e-02f, 1.11857310e-01f, 2.33958215e-01f, 1.23856373e-01f, 6.69750990e-03f,
    -1.59888919e-02f, 1.81253515e-02f, -8.05718154e-02f, 6.89149089e-03f, 1.75991710e-02f, 7.32440352e-02f, 7.51560479e-02f, 1.07675880e-01f,
    9.36443806e-02f, 1.20619245e-01f, 1.44335955e-01f, 2.25896418e-01f, 1.17177479e-01f, 6.86689243e-02f, 3.83030623e-02f, 2.54732948e-02f,
    3.18006128e-02f, 8.01755711e-02f, 4.82160226e-02f, 4.06304672e-02f, 6.99489191e-02f, 1.09399065e-01f, 5.50729893e-02f, -5.12130372e-02f,
    3.55627184e-04f, 2.02318072e-01f, 1.22213073e-01f, 9.49100852e-02f, 3.47113349e-02f, -4.88648191e-03f, -5.16729383e-03f, -2.77111344e-02f,
    -4.34366763e-02f, 2.28900462e-02f, 6.29255027e-02f, -4.37907130e-03f, 8.66684690e-02f, 1.19901888e-01f, 2.22745270e-01f, 1.98168725e-01f,
    9.00866985e-02f, 2.58282549e-03f, -1.74103607e-03f, 7.96253011e-02f, 7.34356940e-02f, 7.57749230e-02f, -5.13707101e-03f, 3.96603420e-02f,
    8.47627819e-02f, -1.63319055e-02f, 2.64491271e-02f, -2.62632929e-02f, 1.58567447e-02f, 1.90528721e-01f, 1.43721804e-01f, -9.25682671e-03f,
    1.23794228e-02f, -1.47982105e-03f, 1.13168238e-02f, -6.04386516e-02f, -4.85041291e-02f, -4.54542264e-02f, 4.10227776e-02f, 4.48184200e-02f,
    1.19119667e-01f, 9.85525697e-02f, 1.83885545e-01f, 1.21778704e-01f, 3.13402787e-02f, -1.56992059e-02f, 7.77512044e-03f, 3.73022743e-02f,
    6.91415668e-02f, 6.01579361e-02f, 1.66786071e-02f, 2.05222294e-02f, 4.30181772e-02f, 4.98604104e-02f, 1.47212651e-02f, 2.10528746e-02f,
    1.43645912e-01f, 2.56907076e-01f, 5.72501943e-02f, 7.12018162e-02f, -7.69774802e-03f, -4.27758284e-02f, 4.09308523e-02f, -3.47842090e-02f,
    -1.30445369e-06f, -7.30848461e-02f, 3.74907851e-02f, 6.20056204e-02f, 3.44661064e-02f, 3.47490497e-02f, 6.68496042e-02f, 1.03314199e-01f,
    4.39322591e-02f, 1.08706597e-02f, 3.47550437e-02f, 8.01006928e-02f, 5.84879778e-02f, 2.19222773e-02f, 3.73506993e-02f, 3.72293591e-02f,
    6.88352883e-02f, 8.54764581e-02f, 3.58141586e-02f, 3.98010351e-02f, -4.34169173e-02f, 1.08583212e-01f, 8.24761242e-02f, -5.20363078e-03f,
    1.81039423e-03f, 4.70844246e-02f, -5.47315273e-03f, -4.61050449e-03f, 4.58093174e-02f, 1.78108849e-02f, -5.20191342e-02f, 2.18650531e-02f,
    1.37525443e-02f, 6.79108500e-02f, 6.68280646e-02f, 4.03657258e-02f, 1.22945225e-02f, 1.22007160e-02f, -8.55069514e-03f, 5.18075898e-02f,
    5.27952313e-02f, 1.34025095e-02f, 3.64259705e-02f, 7.39021748e-02f, 1.49107771e-02f, 8.40787739e-02f, 5.89697398e-02f, 5.49521074e-02f,
    4.79594283e-02f, 6.00401834e-02f, 1.91877186e-02f, -8.42426531e-03f, 2.12603360e-02f, 1.30005153e-02f, 2.57167686e-02f, 9.08705220e-03f,
    1.06346998e-02f, 1.80889200e-02f, -5.70810912e-03f, 1.67705398e-02f, 7.69867301e-02f, 6.00470342e-02f, 6.09356649e-02f, 7.29212314e-02f,
    3.59323844e-02f, 2.71296967e-02f, 3.42026502e-02f, 4.21797298e-02f, 1.36788609e-02f, 1.34448633e-02f, 6.58025369e-02f, 1.77428089e-02f,
    3.36133093e-02f, 1.10419795e-01f, 1.15998387e-01f, 1.48303807e-01f, 1.52115494e-01f, 8.75322297e-02f, 1.53364204e-02f, -9.98294353e-03f,
    1.54785812e-02f, -2.22700536e-02f, -1.63077340e-02f, 2.89785862e-02f, -1.92138199e-02f, -1.30013637e-02f, 2.05829944e-02f, -4.67499606e-02f,
    4.29539420e-02f, 8.18232223e-02f, 4.93245497e-02f, 1.57061704e-02f, 3.93059291e-02f, -2.61206534e-02f, -4.59087789e-02f, -2.35839784e-02f,
    -2.48651635e-02f, 6.76884362e-03f, 3.04456986e-02f, 4.22800817e-02f, 5.13617992e-02f, 9.37529728e-02f, 8.69541466e-02f, 8.84272233e-02f,
    1.24535203e-01f, 6.55218959e-02f, -1.43573405e-02f, -3.55709344e-03f, 2.10839063e-02f, -2.76570320e-02f, -7.42009329e-03f, -1.18255466e-02f,
    -9.91562903e-02f, -2.46990491e-02f, -1.19568825e-01f, -1.02951542e-01f, 2.54111690e-03f, -2.09212620e-02f, -2.98473127e-02f, 2.29778001e-03f,
    -3.77552360e-02f, -5.79686090e-02f, -2.24768426e-02f, -9.98470932e-02f, -6.87292740e-02f, -7.78340846e-02f, -4.69727926e-02f, 2.39977296e-02f,
    9.69657674e-02f, 1.03897966e-01f, 1.06361762e-01f, 1.31150723e-01f, 7.89679959e-02f, 1.83442980e-02f, -1.34847285e-02f, 1.41049549e-02f,
    -1.76734719e-02f, 2.33382732e-03f, -1.04365163e-02f, -1.12217985e-01f, -9.03485045e-02f, -1.18146598e-01f, -8.75047967e-02f, -9.17388126e-02f,
    -5.98982424e-02f, -3.75537463e-02f, -1.03887640e-01f, -1.02075495e-01f, -9.82933417e-02f, -1.24460496e-01f, -9.68492553e-02f, -1.06081717e-01f,
    -1.54788390e-01f, -1.20374061e-01f, -2.73855124e-02f, 9.85980034e-04f, 6.37205690e-02f, 3.54751199e-02f, 9.64746326e-02f, 7.72690400e-02f,
    7.96609819e-02f, 3.40723582e-02f, 5.52219525e-03f, 1.44169703e-02f, 7.54018500e-03f, -3.08074802e-03f, -1.87700149e-02f, -2.54104491e-02f,
    -9.75725800e-02f, -7.55516365e-02f, -4.63088378e-02f, -8.91764313e-02f, -1.61682546e-01f, -1.77523658e-01f, -1.31075978e-01f, -1.00434072e-01f,
    -1.24234177e-01f, -9.52508897e-02f, -7.47163668e-02f, -1.70198992e-01f, -9.98501927e-02f, -1.34607926e-01f, -6.33984059e-02f, 3.83435236e-03f,
    3.66453752e-02f, 2.95121670e-02f, -4.71338630e-03f, 4.78100069e-02f, -1.02434782e-02f, 8.66559148e-03f, 2.99068056e-02f, 7.96657056e-03f,
    -3.56668979e-02f, -1.50691755e-02f, 5.21284714e-03f, 2.51019895e-02f, 1.36069125e-02f, 6.24920130e-02f, 4.83460836e-02f, 8.74122977e-03f,
    -1.17786881e-02f, 2.07079435e-03f, -3.06746103e-02f, 4.31694202e-02f, 6.23135716e-02f, 5.08288406e-02f, 2.59484984e-02f, -3.19765173e-02f,
    -5.36399558e-02f, -7.68108070e-02f, -5.73347770e-02f, 1.26004068e-03f, 5.61008640e-02f, 1.52703142e-02f, -7.64451697e-02f, -4.00178367e-03f,
    -2.53853891e-02f, -3.24439071e-02f, 2.08592601e-02f, 3.46094929e-02f, 2.32418142e-02f, -1.43969525e-02f, -2.17288285e-02f, -2.06788238e-02f,
    3.35866995e-02f, -4.62818891e-02f, -4.80826758e-02f, 3.85762602e-02f, 1.24435984e-02f, -4.36752141e-02f, -3.62524986e-02f, -1.68008953e-02f,
    2.09644102e-02f, -6.17031306e-02f, -3.97826619e-02f, -3.13715599e-02f, -4.60672826e-02f, -2.72117183e-02f, -8.47735927e-02f, 1.95118915e-02f,
    2.88652107e-02f, 2.08295397e-02f, -3.73942889e-02f, -7.83659332e-03f, -1.76979434e-02f, 2.34900378e-02f, -3.45482789e-02f, 2.36533210e-02f,
    3.30768526e-05f, -2.27346569e-02f, -1.03113521e-02f, -4.23497334e-03f, -1.07563660e-02f, -1.57286823e-02f, -9.61933099e-03f, 3.72533873e-03f,
    1.73204876e-02f, 5.91147318e-03f, 2.58764774e-02f, -5.87139837e-03f, 3.01676132e-02f, -1.47147588e-02f, -7.17141724e-04f, 2.39889026e-02f,
    7.58298859e-03f, 2.28974149e-02f, -3.39962468e-02f, -2.31308490e-03f, -3.31693850e-02f, -8.23932141e-03f, -1.29043888e-02f, -2.20527109e-02f,
    -2.24278327e-02f, 2.75665857e-02f, 1.61767304e-02f, 1.21285319e-02f, 6.43689185e-03f, 1.12988204e-02f, 3.41937691e-03f, -3.45274620e-02f,
    -4.04057652e-03f, 2.27152966e-02f, -4.00440544e-02f, -7.30991662e-02f, -2.31728535e-02f, -2.44617946e-02f, -8.20207521e-02f, -2.82701943e-02f,
    -1.27584040e-01f, -1.11380041e-01f, 4.31409478e-02f, -4.08189371e-02f, 5.32261841e-02f, -7.97302797e-02f, -1.28514051e-01f, -8.24868679e-02f,
    -5.84309585e-02f, -8.20422769e-02f, -3.65333706e-02f, -3.53624970e-02f, -2.74000391e-02f, -1.04295481e-02f, 3.09507921e-03f, -3.30377221e-02f,
    -2.34704092e-03f, 8.92957672e-03f, 2.66460180e-02f, 2.54329033e-02f, -5.82203120e-02f, 1.69474781e-02f, -5.48339039e-02f, -9.89254937e-02f,
    -1.36304379e-01f, -4.25564684e-02f, -1.00225806e-01f, -1.18685164e-01f, -1.10946782e-01f, -7.31694251e-02f, -1.06835209e-01f, -9.86672267e-02f,
    -6.13847114e-02f, -1.24369845e-01f, -9.77247432e-02f, -1.21685907e-01f, -1.14198834e-01f, -6.11803420e-02f, -7.94526488e-02f, -6.70981035e-02f,
    2.48893686e-02f, 4.82988656e-02f, -1.50383506e-02f, -1.19763240e-02f, 2.03113109e-02f, -1.43256877e-02f, -3.88015658e-02f, 1.52603686e-02f,
    1.49838999e-03f, -5.92879765e-02f, -1.08520091e-01f, -8.68240744e-02f, -4.40482274e-02f, -1.45524487e-01f, -1.12347826e-01f, -8.06982592e-02f,
    -9.39264670e-02f, -6.88675195e-02f, -2.91580930e-02f, -1.00819655e-01f, -5.93389980e-02f, -8.14263523e-03f, -6.80768192e-02f, -9.05221850e-02f,
    -1.22544551e-02f, -3.02882269e-02f, -5.07564470e-02f, -4.28899042e-02f, -5.80779314e-02f, 5.85317202e-02f, 3.34019996e-02f, -2.91648302e-02f,
    1.17004588e-02f, 2.00906619e-02f, -4.78480086e-02f, -9.88502614e-03f, 4.85062692e-03f, 3.93938593e-04f, 1.32397497e-02f, 1.55541506e-02f,
    -5.97209707e-02f, 3.59651558e-02f, -2.14911066e-02f, 5.01177423e-02f, 7.36225098e-02f, 4.44275029e-02f, 7.84337372e-02f, 1.28623948e-01f,
    9.95722786e-02f, 4.86757271e-02f, 3.61120775e-02f, -2.96964888e-02f, -3.91989276e-02f, 1.77899580e-02f, -2.01763734e-02f, -4.35548909e-02f,
    7.90923089e-02f, 1.24605186e-01f, 1.31470919e-01f, 3.56345735e-02f, -1.48459207e-02f, -3.08897682e-02f, 2.30719261e-02f, 4.65982873e-03f,
    6.66725077e-03f, -3.56431864e-02f, -4.92834449e-02f, 1.78946927e-02f, -3.22672576e-02f, 3.19427587e-02f, 4.66549881e-02f, 9.60767344e-02f,
    1.13970108e-01f, 6.28577769e-02f, 7.72815570e-02f, 1.23264216e-01f, 1.82572857e-01f, 1.82389185e-01f, 1.19507216e-01f, 9.54998955e-02f,
    7.07106218e-02f, 3.10752615e-02f, 3.32908034e-02f, 1.73223503e-02f, 2.96835527e-02f, 9.04315487e-02f, -1.63348503e-02f, 2.01929323e-02f,
    3.42472754e-02f, 2.75604017e-02f, -3.66845988e-02f, -9.52937901e-02f, -1.67303924e-02f, 2.21346579e-02f, 4.54318598e-02f, 1.34593928e-02f,
    6.36079311e-02f, 6.85856044e-02f, 7.87112340e-02f, 5.02217822e-02f, 7.11170584e-02f, 8.44167173e-02f, 1.33626238e-01f, 7.74743930e-02f,
    1.17312916e-01f, 9.17590111e-02f, 5.86957484e-02f, 5.98459169e-02f, 2.49175727e-02f, -1.27244694e-03f, 2.38841772e-02f, 2.89037358e-02f,
    1.19823545e-01f, 1.48202166e-01f, 5.28660603e-02f, 2.36778837e-02f, 1.21133849e-02f, 7.06995875e-02f, -2.04727780e-02f, -1.18523881e-01f,
    -2.75430945e-03f, 1.59119628e-02f, 1.03965394e-01f, -2.41763685e-02f, 1.16911337e-01f, 7.44501725e-02f, 3.35293934e-02f, 4.09310982e-02f,
    -1.34452051e-02f, 3.46600786e-02f, 1.13165062e-02f, 1.29340738e-02f, 2.02590860e-02f, -1.31670991e-02f, 3.81546794e-03f, 5.19086681e-02f,
    4.91051376e-02f, 4.78550941e-02f, 5.13495021e-02f, 1.05251059e-01f, 1.43858597e-01f, 2.17722982e-01f, 1.24898795e-02f, 2.67397915e-03f,
    -6.68590292e-02f, -3.43098082e-02f, -2.67926604e-03f, -6.22619055e-02f, -3.58172543e-02f, 3.48051973e-02f, 3.88834253e-02f, 4.70512062e-02f,
    1.37814740e-02f, 6.25492036e-02f, 7.69515038e-02f, -2.91462298e-02f, -4.21262272e-02f, -4.83420156e-02f, -7.13132098e-02f, -3.64875719e-02f,
    -3.57656889e-02f, -4.98266332e-02f, 7.26256818e-02f, 6.74892440e-02f, 5.74444421e-02f, 5.13057634e-02f, 5.90259060e-02f, 1.57954350e-01f,
    2.59172082e-01f, 2.62785375e-01f, 1.24216340e-01f, 1.59176923e-02f, -3.41255888e-02f, -6.62319437e-02f, -1.80409029e-02f, -1.18623100e-01f,
    -6.34499118e-02f, 6.07115924e-02f, 4.55191880e-02f, -1.22699058e-02f, 5.25493436e-02f, 4.62813564e-02f, 1.23087615e-02f, -2.21365858e-02f,
    -5.41099235e-02f, -7.40385102e-03f, -1.06096335e-01f, -1.17716692e-01f, -4.18464802e-02f, -7.44934659e-04f, 6.52465075e-02f, 7.00465217e-02f,
    3.85519490e-02f, 7.03392178e-02f, 9.55604985e-02f, 1.88051760e-01f, 1.41863346e-01f, 2.01200336e-01f, 1.44783556e-01f, -5.13828322e-02f,
    -4.60011698e-02f, -6.01705573e-02f, -2.48462297e-02f, -5.85091971e-02f, 9.84682236e-03f, -7.22664408e-04f, 6.11500852e-02f, 2.65886486e-02f,
    3.26306075e-02f, 7.08273649e-02f, 7.06010684e-02f, 2.62788665e-02f, 2.14287993e-02f, -1.01454042e-01f, -9.94537696e-02f, -1.22367330e-01f,
    -4.72639054e-02f, -1.10815978e-03f, 5.30994032e-03f, 1.57075394e-02f, 9.58287530e-03f, 3.81351411e-02f, 8.23852941e-02f, 4.63195182e-02f,
    1.13411091e-01f, 1.30194306e-01f, 1.13357119e-01f, 5.30941933e-02f, -5.13131022e-02f, -5.53405546e-02f, -1.24734111e-01f, -6.55641705e-02f,
    -3.69893648e-02f, 3.17182615e-02f, 7.76600167e-02f, 3.36920880e-02f, 6.82032853e-02f, 5.09194024e-02f, -3.66600640e-02f, -2.51842570e-02f,
    -1.66129507e-02f, -7.03997910e-02f, -9.27039608e-02f, -4.83661518e-02f, -6.99487999e-02f, -1.89883274e-03f, -1.21515850e-03f, 3.32491589e-03f,
    1.10498099e-02f, -1.76177230e-02f, 4.01851982e-02f, 6.70919344e-02f, 9.69295353e-02f, 9.27754492e-02f, 1.21023171e-01f, 6.72439439e-03f,
    -4.04615477e-02f, -9.21661686e-03f, -8.89270753e-02f, -6.86395168e-02f, 3.63401286e-02f, 1.87323093e-02f, -3.89415510e-02f, -1.74094911e-03f,
    -1.19322147e-02f, -4.14562486e-02f, 3.29525843e-02f, 6.45754337e-02f, 1.12524204e-01f, 7.52723739e-02f, -2.27782410e-02f, 1.18585094e-03f,
    -3.79951037e-02f, 5.06722135e-03f, -5.51677085e-02f, 6.19578622e-02f, 8.36801678e-02f, 1.97823849e-02f, -5.91219915e-03f, -8.48636180e-02f,
    -1.12257330e-02f, 5.47937006e-02f, 1.19075865e-01f, -3.37897218e-03f, 1.09445751e-02f, -2.15996951e-02f, -9.64128375e-02f, -3.71385850e-02f,
    -2.88248826e-02f, -4.09010313e-02f, -7.09952936e-02f, -7.28141442e-02f, -6.30061468e-03f, 1.26154404e-02f, 2.78740171e-02f, 1.71121851e-01f,
    1.88219488e-01f, 1.21140517e-01f, 3.38747017e-02f, 2.38852669e-02f, -3.39362621e-02f, -1.20235942e-02f, 4.17260155e-02f, 6.36429107e-03f,
    5.32732941e-02f, -4.94255535e-02f, -2.06449013e-02f, -7.95054883e-02f, -5.15897982e-02f, 7.06381649e-02f, 1.32685661e-01f, 9.90354493e-02f,
    3.52663361e-02f, -4.70578186e-02f, -6.86396509e-02f, -6.52249604e-02f, -1.61585435e-02f, -7.74482340e-02f, -3.48131098e-02f, -2.96120495e-02f,
    -1.71326175e-02f, -4.29062061e-02f, 3.89115624e-02f, 1.46339789e-01f, 1.64865837e-01f, 1.12521246e-01f, 5.85474484e-02f, 2.72361450e-02f,
    3.06648724e-02f, 5.86899146e-02f, 9.55050625e-03f, 1.54423406e-02f, -4.48777229e-02f, 9.72718187e-03f, -7.74783790e-02f, -9.93662328e-02f,
    -4.15147422e-03f, 1.75737739e-02f, 9.16377828e-02f, -2.70608813e-03f, -2.52992511e-02f, -5.68840802e-02f, -6.02952763e-02f, 8.20900574e-02f,
    2.28331219e-02f, -8.70722234e-02f, -2.22989209e-02f, -5.59469238e-02f, 8.04993510e-03f, -1.32440403e-02f, 6.93217814e-02f, 7.38081485e-02f,
    1.33377060e-01f, 1.12669960e-01f, 5.63074052e-02f, 4.86089885e-02f, 8.07483792e-02f, 2.62977742e-02f, 6.15189923e-03f, -1.24322418e-02f,
    -8.09425116e-02f, -7.34131187e-02f, -5.84655367e-02f, -3.84451151e-02f, -7.68191591e-02f, 3.93379927e-02f, 1.45721942e-01f, 5.51540963e-03f,
    -3.23329233e-02f, -8.57923180e-04f, -3.12175676e-02f, 9.23265964e-02f, -6.35062680e-02f, -6.36957288e-02f, -2.76616402e-03f, -3.35645527e-02f,
    -4.48770113e-02f, 1.04365796e-02f, 4.81620841e-02f, 2.36843508e-02f, 1.12916723e-01f, 5.83919510e-02f, 4.65972163e-02f, 3.87085713e-02f,
    6.21122345e-02f, 3.65041606e-02f, -3.92571762e-02f, -7.84127042e-02f, -4.21081372e-02f, -4.74861413e-02f, -6.15820065e-02f, 1.62325110e-02f,
    2.26180963e-02f, 6.20432347e-02f, 1.14407621e-01f, 6.16894588e-02f, 2.44649537e-02f, 1.90125243e-03f, 6.09369054e-02f, 7.78125823e-02f,
    5.49341217e-02f, -5.61122596e-03f, 9.43869799e-02f, 2.76406165e-02f, 1.56303998e-02f, 5.89461625e-02f, 2.75967717e-02f, -1.05842892e-02f,
    4.64136265e-02f, -2.70805880e-02f, -2.64262073e-02f, 2.78285816e-02f, 9.48646590e-02f, 2.51643006e-02f, -3.31181916e-03f, -8.01239163e-02f,
    -4.43506129e-02f, -2.83028577e-02f, -6.66031167e-02f, -1.68920662e-02f, 2.12125741e-02f, 5.14212437e-02f, 1.10377952e-01f, -1.98496282e-02f,
    -7.21816160e-03f, -4.78227474e-02f, 9.03970562e-03f, 3.25948596e-02f, 1.15286268e-01f, 1.79596961e-01f, 1.46529064e-01f, 4.29385304e-02f,
    5.73739670e-02f, 3.57207656e-02f, 3.56021523e-02f, -2.02521309e-02f, 7.24748895e-03f, 1.99620053e-03f, -6.73189983e-02f, 3.45113594e-03f,
    8.13187798e-04f, -2.66316589e-02f, -9.06023979e-02f, 1.12338727e-02f, 7.36624673e-02f, 7.03146309e-03f, 4.95487489e-02f, 3.93494181e-02f,
    1.10642344e-01f, 5.45434654e-03f, 4.10083635e-03f, 7.07891807e-02f, 3.28586288e-02f, -5.22376783e-02f, 5.40446341e-02f, -7.14340527e-03f,
    9.79431123e-02f, 1.82034686e-01f, 1.54781803e-01f, 1.12751558e-01f, 4.17110510e-02f, 2.12094728e-02f, -7.99613260e-03f, -1.06192149e-01f,
    -1.12646565e-01f, -4.49574850e-02f, -3.79402861e-02f, 2.09463248e-03f, -4.87801433e-02f, -7.30219414e-04f, 3.62878405e-02f, -5.17642125e-03f,
    -8.71147262e-04f, 1.06156329e-02f, 9.34380963e-02f, 7.20053762e-02f, -2.29870174e-02f, 4.40706126e-02f, 8.73635486e-02f, 3.68651897e-02f,
    -3.19442637e-02f, 6.06567822e-02f, 7.65889287e-02f, 3.50234918e-02f, 9.34834704e-02f, 1.55191898e-01f, 1.29087955e-01f, 6.54710457e-02f,
    5.13389371e-02f, 3.94282453e-02f, -7.30353501e-03f, -5.60531020e-02f, -1.08159922e-01f, -4.16434184e-02f, -6.42546862e-02f, -9.01786331e-03f,
    1.35049010e-02f, -1.27912508e-02f, 3.86690758e-02f, -6.28765300e-03f, 5.45578077e-02f, 1.48983121e-01f, 1.45234853e-01f, 9.52533409e-02f,
    2.52821706e-02f, 1.50543544e-02f, -3.14762816e-02f, 2.62195170e-02f, 3.04325558e-02f, 9.41107329e-03f, 4.00349647e-02f, -2.13782536e-03f,
    2.96239220e-02f, 1.25455737e-01f, 1.00778125e-01f, 8.47217739e-02f, 4.76308577e-02f, 4.07453515e-02f, -3.93936373e-02f, -1.55374547e-02f,
    -7.32686818e-02f, -5.06147966e-02f, -7.96123892e-02f, -4.30184864e-02f, -2.94047408e-02f, 4.19006795e-02f, 1.16191348e-02f, 8.51266459e-02f,
    5.93318753e-02f, 8.89436528e-02f, 1.70628890e-01f, 1.62181631e-01f, 3.24224271e-02f, 1.28244646e-02f, -5.72570227e-03f, 2.85809599e-02f,
    -2.46131513e-02f, -2.50567086e-02f, 8.59681964e-02f, 7.13552013e-02f, -1.16536031e-02f, -5.62057346e-02f, 4.65345988e-03f, 1.07116781e-01f,
    3.82529981e-02f, 5.61367758e-02f, 3.67547199e-02f, 5.23272008e-02f, 4.64707166e-02f, 7.46813044e-02f, 2.98982915e-02f, 4.20706384e-02f,
    -8.36927735e-04f, 1.70105286e-02f, 5.39893955e-02f, 6.86819255e-02f, 6.66260421e-02f, 1.86913982e-01f, 1.12414211e-01f, 1.69091627e-01f,
    5.71439825e-02f, 2.29772795e-02f, -1.62017234e-02f, 1.53996684e-02f, -1.68280657e-02f, 2.07740813e-03f, 7.34930485e-02f, 7.58302063e-02f,
    -3.35117802e-02f, -8.80411044e-02f, -1.14963666e-01f, -6.37839660e-02f, 8.33667815e-02f, 1.00351289e-01f, 1.30829215e-01f, 1.14813410e-01f,
    1.18768282e-01f, 1.27171025e-01f, 9.49301049e-02f, 5.56177199e-02f, 1.36907563e-01f, 1.02432624e-01f, 6.81173056e-02f, 1.08721085e-01f,
    1.53797552e-01f, 1.90592065e-01f, 1.40851080e-01f, 1.28401875e-01f, 6.96803629e-02f, 1.08831443e-01f, 4.24601720e-04f, 1.31713301e-02f,
    -3.31322141e-02f, 5.10023907e-03f, 5.55318370e-02f, -7.37072080e-02f, -1.15699694e-01f, -1.71663061e-01f, -1.25529885e-01f, -8.78169388e-02f,
    -2.23392583e-02f, 6.38473406e-02f, 2.08773706e-02f, 1.25584766e-01f, 1.15342014e-01f, 8.84337500e-02f, 1.08466312e-01f, 1.01908766e-01f,
    1.63601711e-01f, 8.00635666e-02f, 1.65229067e-01f, 1.05989538e-01f, 1.09720163e-01f, 4.73318174e-02f, 1.05003849e-01f, 5.03287427e-02f,
    3.43584828e-02f, 3.21853980e-02f, 1.02380812e-02f, -1.90030467e-02f, 2.18711458e-02f, 1.91678070e-02f, -9.61583108e-04f, 2.18171161e-02f,
    -5.88956997e-02f, -1.18717842e-01f, -9.75236818e-02f, -1.16426721e-01f, -1.64366931e-01f, -8.33964795e-02f, -8.82743020e-03f, -5.66849336e-02f,
    -6.48767129e-02f, 1.69969294e-02f, 8.61429889e-03f, 9.92567372e-03f, -4.53356653e-03f, -3.97576094e-02f, -5.28480336e-02f, -5.94988652e-02f,
    -4.64997627e-02f, -1.58454955e-01f, -8.24995413e-02f, 7.30943633e-03f, -3.04663405e-02f, 1.27556920e-03f, -3.58337164e-03f, -1.94402859e-02f,
    -6.40673749e-03f, -1.79232061e-02f, -1.55865401e-03f, 1.52686760e-02f, -3.45051661e-02f, -4.73072417e-02f, -1.67607311e-02f, -3.28679532e-02f,
    -6.71992749e-02f, -1.29989520e-01f, -1.33326218e-01f, -8.88267085e-02f, -4.88176644e-02f, -1.25413999e-01f, -1.39169917e-01f, -1.25809744e-01f,
    -1.39922008e-01f, -1.64392859e-01f, -1.61182880e-01f, -2.49073476e-01f, -1.24413453e-01f, -8.22705626e-02f, -1.10860869e-01f, -2.64187865e-02f,
    -2.65321881e-02f, 2.28910595e-02f, -1.46028567e-02f, -1.97753236e-02f, 2.28900127e-02f, 3.20497900e-03f, 6.85334206e-03f, -1.11525953e-02f,
    8.76001269e-03f, 9.44870990e-03f, -4.15350646e-02f, -8.27601030e-02f, -9.43873599e-02f, -3.12870406e-02f, -8.36723223e-02f, 9.87830106e-03f,
    -6.87749758e-02f, -9.77511331e-02f, -1.16192698e-01f, -8.78312215e-02f, -9.45502967e-02f, -1.02546163e-01f, -1.28583670e-01f, -1.72208399e-02f,
    -6.05752356e-02f, -5.49763143e-02f, -3.53289838e-03f, 6.08422607e-03f, -2.53130682e-02f, 1.70263909e-02f, -1.39166638e-02f, -2.00392604e-02f,
    -1.67521592e-02f, -1.96831655e-02f, -1.92626938e-02f, 6.14828616e-03f, 1.73829272e-02f, 1.86999887e-02f, 3.56869064e-02f, 2.90629230e-02f,
    -1.88939106e-02f, 3.01097669e-02f, -8.42228532e-03f, 2.04257593e-02f, -1.67749915e-02f, 4.07828726e-02f, -2.52765790e-03f, 1.22801103e-02f,
    3.10330354e-02f, -7.60763139e-03f, 1.42014958e-02f, 1.00023411e-02f, -1.25643574e-02f, 7.29061663e-04f, 2.96338610e-02f, 8.11811164e-03f,
    2.61645876e-02f, 1.77665502e-02f, 1.68043375e-02f, -1.52650867e-02f, -7.86192156e-03f, 2.21540928e-02f, 8.32644105e-03f, 1.83587819e-02f,
    2.72067823e-02f, 1.52727999e-02f, 1.43608749e-02f, -1.49483178e-02f, 3.32688238e-03f, 1.61857139e-02f, 5.10509908e-02f, 3.43771987e-02f,
    6.10915236e-02f, 1.38693511e-01f, 1.68287545e-03f, 4.57160585e-02f, -8.27607289e-02f, 1.57492645e-02f, 1.23829104e-01f, 1.52229279e-01f,
    1.03957631e-01f, 5.95352761e-02f, 3.14635858e-02f, 3.19155343e-02f, 9.53041017e-03f, -1.61539912e-02f, 7.79147819e-03f, -2.74997577e-02f,
    -2.13737711e-02f, 3.26825567e-02f, 1.38506033e-02f, 1.40623637e-02f, 3.75172906e-02f, -3.46456431e-02f, -6.05553621e-03f, -2.81423684e-02f,
    -5.05579785e-02f, -5.89829423e-02f, -4.72368449e-02f, -7.87800923e-02f, -3.47241163e-02f, -1.93891320e-02f, 2.64487532e-03f, 3.26357521e-02f,
    7.18531385e-03f, 6.58310279e-02f, 1.09673135e-01f, 1.57101363e-01f, 1.07908778e-01f, 9.28815082e-02f, 7.83260614e-02f, 4.47769091e-02f,
    -3.19742411e-03f, -4.59466390e-02f, -1.84061751e-03f, -1.13676060e-02f, -2.49924716e-02f, -1.97241008e-02f, 6.85336590e-02f, 2.73135789e-02f,
    2.08075792e-02f, -7.45057464e-02f, -6.61520800e-03f, -9.21417251e-02f, -1.46732837e-01f, -1.82113856e-01f, -1.28002748e-01f, -1.80843323e-01f,
    -9.89639983e-02f, -6.48590401e-02f, -1.11233681e-01f, -1.77824143e-02f, 7.64936209e-03f, 6.42428249e-02f, 7.32557029e-02f, 1.31892294e-01f,
    1.61104709e-01f, 2.07623318e-01f, 2.21764967e-01f, 1.73799619e-01f, 9.83975828e-02f, -1.52854342e-02f, -1.84007548e-02f, 3.23335789e-02f,
    7.65870884e-03f, -5.03404625e-03f, 6.43399032e-03f, -1.82525739e-02f, -4.43019718e-02f, -1.29502147e-01f, -1.30765960e-01f, -1.36070639e-01f,
    -2.27124214e-01f, -1.65805191e-01f, -1.51174381e-01f, -1.16449930e-01f, -3.52967419e-02f, -6.81330496e-03f, -1.16324838e-04f, -1.34869134e-02f,
    5.57140484e-02f, 3.62772346e-02f, 2.89857276e-02f, 5.93605191e-02f, 1.03301235e-01f, 1.35430664e-01f, 8.60082135e-02f, 1.56438887e-01f,
    1.31221727e-01f, 5.06384000e-02f, 2.33130180e-03f, -2.18532830e-02f, -2.47235745e-02f, 7.64594227e-03f, 3.69921327e-06f, -1.78986024e-02f,
    -4.68249246e-02f, -1.06416054e-01f, -1.58396497e-01f, -1.89922735e-01f, -2.23763302e-01f, -1.50805786e-01f, -1.66261718e-01f, -1.05004504e-01f,
    -1.79343764e-03f, 3.53018083e-02f, 2.28666104e-02f, -7.26479013e-03f, 3.49150300e-02f, 2.69917883e-02f, 3.37088667e-02f, 9.47100669e-02f,
    1.29187793e-01f, 1.22292116e-01f, 5.43933026e-02f, 1.17764622e-01f, 1.66467488e-01f, 1.43422842e-01f, 1.20902233e-01f, 1.54896453e-03f,
    3.53989787e-02f, 3.08029242e-02f, -4.85322215e-02f, -8.70277286e-02f, -1.35633633e-01f, -1.29292697e-01f, -1.64873436e-01f, -1.59216702e-01f,
    -1.59432575e-01f, -2.02072129e-01f, -8.83116871e-02f, -3.96427028e-02f, 3.74833029e-03f, -9.63797513e-03f, -2.07537878e-02f, -2.15196866e-03f,
    -8.97184759e-03f, 2.92232316e-02f, -3.72430251e-04f, 4.23535630e-02f, 3.91546339e-02f, 1.48446215e-02f, 2.47825608e-02f, 1.23687677e-01f,
    2.19555750e-01f, 2.39327490e-01f, 1.30638167e-01f, 9.11602303e-02f, 1.34823099e-03f, 1.15221716e-03f, -4.68204208e-02f, -9.50179100e-02f,
    -7.29800165e-02f, -1.64281622e-01f, -1.69940919e-01f, -1.44494012e-01f, -1.30698130e-01f, -9.16034132e-02f, -2.67091841e-02f, 8.73355940e-03f,
    -8.46902095e-03f, -4.26763333e-02f, -3.15532237e-02f, -5.84028754e-03f, 2.10565538e-03f, -3.92911881e-02f, 3.07172574e-02f, 1.57269966e-02f,
    2.52703875e-02f, 4.43891957e-02f, 4.28868942e-02f, 1.56657115e-01f, 1.58143774e-01f, 2.21297950e-01f, 3.47020701e-02f, 1.33867916e-02f,
    1.54408813e-03f, 7.75902206e-03f, -5.50159700e-02f, -1.07893132e-01f, -1.27877235e-01f, -1.84048861e-01f, -1.62820742e-01f, -1.52517959e-01f,
    -1.62038952e-01f, 1.02238357e-02f, 1.86476931e-02f, -5.01166191e-03f, 6.49076253e-02f, 9.86646041e-02f, 2.33089849e-02f, 2.75692437e-03f,
    2.45938264e-03f, -2.14550532e-02f, -2.70126425e-02f, 3.81544493e-02f, 1.47576747e-03f, 6.50426373e-02f, 5.23811392e-03f, 1.33475423e-01f,
    2.33161524e-01f, 1.83245718e-01f, 1.28798693e-01f, 5.52935489e-02f, -2.48743352e-02f, -6.95552528e-02f, -5.05496636e-02f, -1.41669109e-01f,
    -1.66176215e-01f, -1.84398562e-01f, -1.84391126e-01f, -1.31989017e-01f, -3.86654474e-02f, -1.24741970e-02f, 6.38719201e-02f, 1.44565806e-01f,
    6.73003718e-02f, 6.85404018e-02f, 5.51598929e-02f, -1.40629373e-02f, -5.59642725e-02f, -4.05961946e-02f, -5.25229983e-02f, -8.74942318e-02f,
    -3.71569447e-04f, 2.31773239e-02f, 4.20024898e-03f, 1.47414669e-01f, 2.52034575e-01f, 2.72589713e-01f, 5.09718731e-02f, -2.20205840e-02f,
    -6.21716976e-02f, -2.34300122e-02f, -9.64609757e-02f, -1.28911898e-01f, -1.23696163e-01f, -1.98283181e-01f, -1.83087662e-01f, -9.10243988e-02f,
    -5.76591343e-02f, 1.71635505e-02f, 1.06417015e-01f, 1.52046651e-01f, 1.70487791e-01f, 1.66015744e-01f, 1.25632003e-01f, -1.31264087e-02f,
    -7.72565305e-02f, -1.33070320e-01f, -1.10581785e-01f, -4.87623289e-02f, -3.38948481e-02f, -8.73779599e-03f, 4.33353223e-02f, 2.18086794e-01f,
    2.31166035e-01f, 2.52645612e-01f, 1.02245770e-01f, 4.91228439e-02f, -2.69718096e-02f, -3.13505903e-02f, -7.16704950e-02f, -1.26292408e-01f,
    -1.54817671e-01f, -1.15933217e-01f, -9.72083360e-02f, -7.55934939e-02f, -6.00803979e-02f, -4.44573574e-02f, 3.49209681e-02f, 1.08476780e-01f,
    1.45096615e-01f, 2.02657983e-01f, 2.20932424e-01f, 2.01759096e-02f, -2.11140942e-02f, -7.50579759e-02f, -1.18575811e-01f, -1.23777024e-01f,
    -9.38794166e-02f, -1.15629286e-01f, -9.49970484e-02f, 1.49735451e-01f, 1.93742067e-01f, 2.05001697e-01f, 1.61974460e-01f, 1.53092146e-02f,
    2.58813463e-02f, -3.00021786e-02f, -1.01969995e-01f, -6.34169206e-02f, -1.09856792e-01f, -7.21054301e-02f, -8.83174017e-02f, -7.18607679e-02f,
    -8.69887993e-02f, -2.78181694e-02f, 3.35663073e-02f, 3.24779078e-02f, 6.58553764e-02f, 2.24058241e-01f, 1.43648848e-01f, 6.04022555e-02f,
    -4.93812002e-02f, -6.83453530e-02f, -1.25992373e-01f, -9.93841216e-02f, -8.95424336e-02f, -9.67016295e-02f, -1.30106747e-01f, -3.79713215e-02f,
    -3.95052359e-02f, -5.49641214e-02f, -2.33848002e-02f, -5.99295273e-03f, 1.39356256e-02f, 1.94480941e-02f, -4.34541851e-02f, -4.53382954e-02f,
    -6.72169849e-02f, -1.19852573e-01f, -1.06291384e-01f, -9.47922543e-02f, -5.91786243e-02f, -5.39080426e-02f, -7.78817981e-02f, 3.32545228e-02f,
    1.43497512e-01f, 1.22639075e-01f, 1.00471444e-01f, 1.30027071e-01f, -6.31256402e-02f, -7.97302723e-02f, -4.61137295e-02f, -4.66556288e-02f,
    -9.75571647e-02f, -1.65647969e-01f, -1.89333618e-01f, -1.57414287e-01f, -1.35412559e-01f, -1.26467422e-01f, -8.41090679e-02f, -6.42718971e-02f,
    -8.35569389e-03f, 2.43517868e-02f, -7.97709450e-03f, 1.10774720e-02f, -6.49455264e-02f, -1.15654506e-01f, -1.65230647e-01f, -1.40230119e-01f,
    -1.82688460e-01f, -9.05206800e-02f, -4.38069329e-02f, 9.82314581e-04f, 5.12926802e-02f, 9.91963446e-02f, 5.45596480e-02f, 3.47796492e-02f,
    1.28138503e-02f, -7.03403056e-02f, -6.92080483e-02f, -9.88306776e-02f, -5.54854721e-02f, -1.49303913e-01f, -2.62961447e-01f, -2.84007281e-01f,
    -2.43295133e-01f, -1.14812158e-01f, -2.34777983e-02f, -1.63329765e-02f, -1.21567938e-02f, 4.04564627e-02f, -4.17800732e-02f, 1.35965012e-02f,
    -8.46257731e-02f, -9.76816565e-02f, -7.93621242e-02f, -1.10461250e-01f, -1.16280764e-01f, -1.15054421e-01f, -9.71167311e-02f, 1.00652790e-02f,
    7.27684721e-02f, 1.19710766e-01f, 1.28388062e-01f, 7.53777334e-04f, -3.44048552e-02f, -1.02862641e-01f, -8.46393127e-03f, -7.04222322e-02f,
    -5.47419041e-02f, -1.26249582e-01f, -2.68929929e-01f, -2.47490212e-01f, -1.91002846e-01f, -1.28216743e-01f, -8.35247934e-02f, -3.28986309e-02f,
    -1.03409216e-03f, -1.38833001e-03f, -6.97147995e-02f, 2.03221124e-02f, -2.79738251e-02f, -5.83544150e-02f, -2.10341457e-02f, -1.02530487e-01f,
    -8.07842165e-02f, -1.29476711e-01f, -8.58576819e-02f, 5.53462654e-02f, 6.22203387e-02f, 6.72535971e-02f, 6.80062547e-02f, -1.47989197e-02f,
    -4.37845550e-02f, -8.15978721e-02f, -4.63331006e-02f, -5.46478368e-02f, -1.13616772e-01f, -2.05999047e-01f, -2.49406666e-01f, -2.62430996e-01f,
    -2.06898332e-01f, -2.18314484e-01f, -1.33077577e-01f, -7.75035843e-02f, -1.33293662e-02f, -2.62363236e-02f, -7.25563541e-02f, -2.18595583e-02f,
    -1.22100729e-02f, 2.93986984e-02f, 2.06324942e-02f, -3.69384289e-02f, -7.43639842e-02f, -3.73139605e-02f, 4.95127812e-02f, 8.77705365e-02f,
    4.26794589e-02f, 4.96371044e-03f, 1.57821942e-02f, -4.73125950e-02f, 3.53904068e-02f, -8.06572754e-03f, 5.24724983e-02f, 2.40321383e-02f,
    -8.40694755e-02f, -7.30625540e-02f, -1.96197718e-01f, -2.39949569e-01f, -2.14185834e-01f, -2.62799948e-01f, -1.32190630e-01f, -2.12080535e-02f,
    -3.26733179e-02f, -1.55605730e-02f, 2.03209324e-03f, 2.75669917e-02f, 3.10261454e-03f, 1.07757328e-02f, 1.29516544e-02f, 3.43000889e-02f,
    -1.17889009e-02f, 9.13624000e-03f, 2.21890640e-02f, 4.34607342e-02f, 8.81348401e-02f, 2.70548165e-02f, 4.29101214e-02f, -1.17987348e-02f,
    2.55776644e-02f, 9.03177708e-02f, 6.93855286e-02f, 8.02910402e-02f, -3.45505984e-03f, -8.62707421e-02f, -1.92778498e-01f, -2.48133600e-01f,
    -2.46327922e-01f, -1.38890237e-01f, -1.68186929e-02f, -3.71032432e-02f, 1.71238966e-02f, 4.08617128e-03f, 1.33877387e-02f, -1.07961930e-01f,
    -1.48326149e-02f, -5.68095315e-03f, 2.27306988e-02f, 6.33352343e-03f, 2.12181304e-02f, 6.08085617e-02f, 5.63795455e-02f, -1.51280873e-02f,
    2.14826148e-02f, 2.94134673e-03f, -5.06166695e-03f, 4.83065583e-02f, 1.24124676e-01f, 1.05589099e-01f, 1.76437005e-01f, 6.01057261e-02f,
    1.47956284e-02f, -1.90367520e-01f, -2.24984065e-01f, -1.87618271e-01f, -1.61375850e-01f, -1.24418303e-01f, -6.47522882e-02f, 2.77441181e-02f,
    -2.90720537e-03f, -8.65132585e-02f, -6.17656112e-03f, -1.00691251e-01f, -1.13151759e-01f, -2.89723985e-02f, 2.11253650e-02f, 5.12661524e-02f,
    2.75084134e-02f, 3.62001695e-02f, 8.47359523e-02f, 1.73588432e-02f, -7.36442907e-03f, 1.68219600e-02f, 6.74012722e-03f, 2.48751771e-02f,
    1.20425873e-01f, 1.19514383e-01f, 1.10340834e-01f, 6.13204204e-02f, -7.73410574e-02f, -1.10853232e-01f, -1.73914626e-01f, -1.76376015e-01f,
    -2.07882300e-01f, -8.49911571e-02f, 2.12891586e-02f, 2.55089998e-03f, -2.64859293e-02f, -7.74809346e-02f, -1.26192793e-01f, -7.50438496e-02f,
    -2.91463640e-02f, 1.91487931e-03f, 2.16436759e-02f, 3.91524062e-02f, 2.24024411e-02f, 2.04454325e-02f, 2.08111629e-02f, 6.38783276e-02f,
    6.50688186e-02f, 8.62425044e-02f, 8.38804469e-02f, 5.70182726e-02f, 3.68794911e-02f, 7.14711100e-02f, 1.45519134e-02f, 4.11836547e-04f,
    -3.55650149e-02f, -1.53417066e-01f, -1.97901055e-01f, -1.63719296e-01f, -1.62106246e-01f, -1.17897257e-01f, 2.80114822e-02f, 9.48875770e-03f,
    1.37813576e-02f, 3.44913714e-02f, -6.89275339e-02f, -1.28342792e-01f, 9.29726288e-03f, -4.63934466e-02f, -2.51103789e-02f, -5.19295707e-02f,
    -3.29096727e-02f, -1.95048898e-02f, 2.63691321e-02f, 5.00818938e-02f, 9.19159427e-02f, 1.04905091e-01f, 1.05760597e-01f, 1.13951690e-01f,
    5.92039302e-02f, 6.63304701e-02f, 3.08549143e-02f, -5.42241372e-02f, -1.09667212e-01f, -1.68002293e-01f, -1.41986459e-01f, -1.15941539e-01f,
    -8.72893855e-02f, -7.33002424e-02f, 5.90005983e-03f, 2.43267827e-02f, 3.56207900e-02f, 3.06246839e-02f, -5.50400056e-02f, -3.73024717e-02f,
    2.60182731e-02f, -2.44641900e-02f, -4.64208759e-02f, -6.66289926e-02f, -1.89823154e-02f, -1.29129244e-02f, -2.07922049e-02f, 3.37336622e-02f,
    5.06128594e-02f, 1.13171674e-01f, 1.27467930e-01f, 9.83339995e-02f, 1.35693833e-01f, 2.40115207e-02f, -3.07141617e-02f, -1.95885263e-02f,
    -5.88967390e-02f, -1.35552794e-01f, -1.16955526e-01f, -9.37810391e-02f, -4.19677645e-02f, -7.56611628e-03f, -5.54608479e-02f, -1.21314451e-02f,
    5.03288954e-03f, 2.85410546e-02f, -4.07075137e-03f, -1.23963140e-01f, -1.34796813e-01f, -1.70921609e-01f, -1.10139243e-01f, -8.13528448e-02f,
    -2.32778806e-02f, 3.92536558e-02f, 3.45931612e-02f, 5.57582341e-02f, 9.10319984e-02f, 9.11935791e-02f, 9.92639065e-02f, 1.02039225e-01f,
    8.89624059e-02f, 4.13487516e-02f, 8.78733024e-02f, -2.04696171e-02f, -6.34659827e-02f, -8.91162232e-02f, -8.72341916e-02f, -8.23954716e-02f,
    -2.26607416e-02f, -5.48211485e-02f, 2.28960142e-02f, -3.30941603e-02f, 3.51839401e-02f, 5.78002259e-03f, -1.84000023e-02f, -1.13359559e-02f,
    -9.63302851e-02f, -2.00970262e-01f, -1.21513762e-01f, -5.84451407e-02f, -4.84994836e-02f, -3.53652332e-03f, 1.79630760e-02f, -2.21625604e-02f,
    -4.16019792e-03f, -4.52466644e-02f, -3.57612930e-02f, 5.11718355e-03f, 6.81483001e-02f, 6.60523549e-02f, 2.88743544e-02f, 3.04016713e-02f,
    3.11992653e-02f, 2.17796420e-03f, 1.86033752e-02f, -8.23744982e-02f, -1.02018546e-02f, 2.98760794e-02f, -1.35721490e-02f, -1.64193176e-02f,
    -2.96898838e-02f, 1.94824189e-02f, 1.08928531e-02f, -4.42171097e-03f, 1.06337443e-02f, -3.11093666e-02f, -5.28432392e-02f, -8.97408128e-02f,
    -1.05910920e-01f, -4.17327434e-02f, -6.04375117e-02f, -8.33339337e-03f, 8.11103545e-03f, -5.29102683e-02f, -6.64888769e-02f, -2.23432580e-04f,
    -5.71462978e-03f, -9.81910899e-03f, -2.58533582e-02f, -1.31345108e-01f, -7.28015080e-02f, -3.39088589e-03f, 1.73253864e-02f, 2.41505355e-02f,
    3.38327140e-03f, 3.14069353e-02f, -3.54376025e-02f, 2.64437348e-02f, 2.71245204e-02f, 1.61997229e-02f, -1.07102618e-02f, -8.35160352e-03f,
    1.87913626e-02f, -9.55915544e-03f, 3.37880128e-03f, -8.90430212e-02f, -6.34913817e-02f, -3.77218872e-02f, -9.49425474e-02f, 8.10991856e-04f,
    -1.96889732e-02f, -9.48049650e-02f, -1.22324508e-02f, 3.88347134e-02f, 1.00224689e-02f, -7.42388442e-02f, -4.04388085e-02f, -7.64658377e-02f,
    -1.39994146e-02f, 3.14052440e-02f, 2.81849839e-02f, -1.17543563e-02f, 2.00230628e-04f, 6.47707283e-03f, -1.40546653e-02f, 1.49664618e-02f,
    -6.85418025e-03f, -2.99047027e-02f, -9.77882370e-03f, 3.54699604e-02f, 1.60403885e-02f, 1.64721049e-02f, 6.38606399e-03f, 1.08290575e-02f,
    1.25312209e-02f, -2.24654004e-02f, 3.77080217e-03f, -1.03682410e-02f, -2.48091016e-02f, -6.12552091e-03f, -3.21914852e-02f, -3.36756781e-02f,
    -3.49461325e-02f, 3.22732367e-02f, 2.21939012e-03f, -4.36913222e-04f, -2.86463425e-02f, 8.07687640e-03f, 2.85350718e-02f, 3.49198319e-02f,
    -3.01296338e-02f, -1.11601707e-02f, 2.81563140e-02f, 3.07869352e-02f, 3.43640260e-02f, -3.26279663e-02f, -2.99711488e-02f, -1.86779760e-02f,
    1.77050009e-02f, -2.97165178e-02f, -2.81169638e-03f, -4.10210118e-02f, 9.61893983e-03f, 2.23656744e-02f, 5.05486764e-02f, 3.16121317e-02f,
    6.25014529e-02f, 6.38948604e-02f, 3.33565287e-02f, -4.17327601e-03f, -1.21795833e-01f, 3.97584997e-02f, 4.80079129e-02f, 1.31884396e-01f,
    1.04848072e-01f, 6.71657547e-03f, 1.04535241e-02f, 2.34383112e-03f, -1.37869418e-02f, -3.38144451e-02f, -2.32690666e-02f, -2.99700461e-02f,
    6.80938736e-03f, 1.94371492e-03f, 4.42115217e-03f, -3.52536701e-02f, 1.60769522e-02f, -2.19268687e-02f, 5.27276509e-02f, 4.44846600e-03f,
    1.00515150e-01f, 2.35827006e-02f, 9.91905257e-02f, 9.81940627e-02f, 9.17830467e-02f, 1.51647568e-01f, 1.01311795e-01f, 1.48198485e-01f,
    2.40003064e-04f, 3.86900641e-02f, 7.20114708e-02f, 1.07083760e-01f, 9.45433080e-02f, 4.52414975e-02f, 1.11767232e-01f, 4.22966145e-02f,
    3.31127346e-02f, -5.49399629e-02f, -2.81887017e-02f, 3.21150161e-02f, -2.66418420e-02f, -1.75007973e-02f, 3.83429527e-02f, -2.45232135e-03f,
    2.76894122e-03f, -6.79900423e-02f, 8.81721005e-02f, 7.81952515e-02f, 1.74520351e-02f, 5.91799729e-02f, 3.94717604e-02f, -6.81312680e-02f,
    -2.77816243e-02f, -1.95789114e-02f, -7.65582323e-02f, 2.32210774e-02f, -6.65493635e-03f, -5.67825101e-02f, -1.99318100e-02f, 4.76432182e-02f,
    -2.46578380e-02f, 9.28240865e-02f, 6.77058995e-02f, 3.80867533e-02f, 7.52390772e-02f, -1.02232866e-01f, -1.49799976e-02f, -2.53726933e-02f,
    7.09787384e-03f, 1.79450475e-02f, 3.85780595e-02f, -8.58504884e-03f, 4.77596410e-02f, -1.21637816e-02f, -2.60113813e-02f, 1.37837706e-02f,
    -1.14545468e-02f, -3.06440890e-02f, -2.54208799e-02f, -1.19359151e-01f, -8.51154849e-02f, 4.91072936e-03f, -9.08658430e-02f, -8.69827643e-02f,
    -7.13604987e-02f, -9.15242508e-02f, -4.70284224e-02f, 7.74938241e-03f, 2.71133874e-02f, 1.11421034e-01f, 1.13522969e-01f, 1.32970646e-01f,
    2.83090957e-02f, -5.56820668e-02f, -4.81276363e-02f, 1.32240988e-02f, -3.59600782e-03f, 2.76678056e-03f, 1.18134543e-02f, 1.00449054e-02f,
    -1.22834109e-02f, 9.85189900e-03f, 1.22290337e-03f, -8.35896190e-03f, 1.16629954e-02f, 8.97821039e-03f, -1.51648521e-02f, -5.06299846e-02f,
    -3.77031304e-02f, -3.11514568e-02f, 3.49383289e-03f, -2.04419158e-02f, -4.73850444e-02f, -1.63866244e-02f, -3.59463617e-02f, 3.51791382e-02f,
    1.92386825e-02f, 3.49963345e-02f, 5.85343949e-02f, 1.42655447e-01f, 9.30716693e-02f, -5.18528186e-03f, 1.39840394e-02f, 1.59882903e-02f,
    1.15733035e-02f, 4.72207740e-03f, -2.13513430e-02f, -5.26556931e-02f, -2.63043456e-02f, 1.28177060e-02f, -7.12224022e-02f, 5.33019342e-02f,
    2.14733556e-02f, 1.45223020e-02f, 3.15362997e-02f, -2.25503650e-03f, -2.28145462e-03f, -3.09708063e-02f, -9.35372151e-03f, -4.96663861e-02f,
    -8.48099515e-02f, -2.10217293e-02f, -4.95696180e-02f, -3.32787074e-02f, -3.58152986e-02f, -1.80406310e-02f, 7.24473745e-02f, 9.16968137e-02f,
    7.24581331e-02f, -1.77289881e-02f, 4.35343832e-02f, -7.27170939e-03f, -3.13908309e-02f, -2.90783066e-02f, 2.08312217e-02f, -9.66543239e-03f,
    -3.50499935e-02f, -2.17195824e-02f, -5.71973696e-02f, 1.55544439e-02f, 6.03454188e-03f, 4.69210232e-03f, 8.35677087e-02f, -9.21984203e-03f,
    -4.77118269e-02f, -1.98527500e-02f, -7.56903961e-02f, -7.63420314e-02f, -1.34708494e-01f, -7.07056522e-02f, -5.05569279e-02f, -6.05053715e-02f,
    -2.42255591e-02f, 4.53714107e-04f, 3.14182304e-02f, -2.10522823e-02f, -2.18749251e-02f, 2.15027295e-02f, 2.62166020e-02f, -8.59133247e-03f,
    2.97622494e-02f, 3.69575173e-02f, 5.23970947e-02f, -2.75368560e-02f, -1.96370706e-02f, 6.00434560e-03f, -2.11354643e-02f, 5.87937273e-02f,
    6.34281710e-02f, 3.52631733e-02f, 3.01337782e-02f, 1.75221302e-02f, -1.71687342e-02f, -6.74743429e-02f, -1.26732811e-01f, -1.24027051e-01f,
    -1.75159410e-01f, -1.37022808e-01f, -9.40153375e-02f, -9.08847153e-02f, -9.33088809e-02f, -6.43307120e-02f, -2.70623527e-02f, -9.63638872e-02f,
    -6.98061585e-02f, -8.09761602e-03f, -1.21256590e-01f, -3.90375108e-02f, -4.57987189e-02f, 1.75265558e-02f, 7.17388093e-02f, -3.86705771e-02f,
    -3.10882665e-02f, -2.85937004e-02f, 3.30789424e-02f, 6.42842846e-03f, 7.22402185e-02f, 3.18474486e-03f, 3.03620622e-02f, 7.01813549e-02f,
    4.38220203e-02f, -1.03511319e-01f, -1.24470025e-01f, -1.30062982e-01f, -9.05054733e-02f, -7.33410642e-02f, -1.13307826e-01f, -9.46081877e-02f,
    -8.71639922e-02f, 2.66685849e-03f, -5.57484068e-02f, -8.29039663e-02f, -1.31113783e-01f, -1.40805349e-01f, -7.20615387e-02f, 7.42138699e-02f,
    -9.75958258e-03f, 6.00589104e-02f, 6.93893433e-03f, -1.07447334e-01f, -2.23971196e-02f, -3.43298465e-02f, -4.49045561e-03f, 4.71178629e-02f,
    1.06080867e-01f, 9.79993492e-02f, 9.71003845e-02f, 9.10507217e-02f, 1.44342612e-02f, -7.63154626e-02f, -1.09756812e-01f, -4.98100631e-02f,
    -6.30556345e-02f, -4.11419664e-03f, -1.02136232e-01f, -2.24251859e-02f, -1.04515322e-01f, -3.06502301e-02f, -2.29531452e-02f, -1.24366142e-01f,
    -1.87707096e-01f, -1.84649497e-01f, -1.21792831e-01f, -5.21423779e-02f, 7.29786977e-02f, 3.49193178e-02f, -1.69243745e-03f, -6.84975535e-02f,
    -2.46421155e-03f, 4.80135269e-02f, 3.99872884e-02f, 6.37186393e-02f, 8.30209032e-02f, 1.59040421e-01f, 1.19110689e-01f, 8.64912271e-02f,
    1.79830771e-02f, -6.64296001e-02f, -4.06751223e-02f, 4.09964249e-02f, 1.23044081e-01f, 2.43375711e-02f, -2.37404015e-02f, -4.29519825e-02f,
    2.72398372e-03f, 9.25272889e-03f, 8.50373413e-03f, -5.25175855e-02f, -3.17624696e-02f, -1.53930902e-01f, -1.15110531e-01f, -1.02688291e-03f,
    1.22223571e-02f, 2.02302262e-02f, -9.46700666e-03f, -4.17493097e-02f, 3.70401442e-02f, 1.09007806e-01f, 5.98194748e-02f, 1.47274405e-01f,
    2.01115012e-01f, 1.58868670e-01f, 1.27698943e-01f, 8.01066458e-02f, -5.56346588e-02f, -1.05907284e-01f, -2.83059999e-02f, 7.71737546e-02f,
    1.45817190e-01f, 7.13178366e-02f, 3.64027880e-02f, -1.81342736e-02f, 2.35183723e-02f, 6.09992519e-02f, 7.06518069e-02f, 1.23792976e-01f,
    3.09335459e-02f, -4.50492613e-02f, -1.68813124e-01f, 5.60388044e-02f, -6.83347322e-03f, 1.82695612e-02f, -7.18085989e-02f, -5.08175716e-02f,
    9.37571675e-02f, 1.46106943e-01f, 1.57252386e-01f, 1.27644539e-01f, 9.09238011e-02f, 9.25370157e-02f, 7.96413124e-02f, 1.55603876e-02f,
    -1.06248520e-01f, -7.04413578e-02f, 5.37115410e-02f, 1.21010706e-01f, 1.22943863e-01f, 1.33875072e-01f, 1.00932121e-01f, 2.99631171e-02f,
    1.26367226e-01f, 1.22560300e-01f, 1.43948019e-01f, 1.10928155e-01f, 6.15983307e-02f, -5.68976924e-02f, -5.73311150e-02f, -4.81074862e-02f,
    2.32644193e-02f, -2.41857395e-02f, 1.66968964e-02f, -1.05708111e-02f, 1.20206833e-01f, 1.53324321e-01f, 8.56039226e-02f, 1.14974827e-01f,
    1.34814739e-01f, 9.24234614e-02f, 2.29875427e-02f, -3.48010175e-02f, -7.21176192e-02f, -3.56024541e-02f, 7.56795034e-02f, 1.34245113e-01f,
    1.49210468e-01f, 6.50290102e-02f, 9.10000354e-02f, 4.55547720e-02f, 7.83157945e-02f, 5.66366091e-02f, 1.40475988e-01f, 5.91397323e-02f,
    2.47567035e-02f, -5.40864691e-02f, -8.09189379e-02f, -3.13432738e-02f, 2.76983492e-02f, -3.00989114e-02f, 1.03413045e-01f, 1.04561090e-01f,
    1.98556650e-02f, 3.20859179e-02f, 7.74924755e-02f, 3.62090021e-02f, 8.00332204e-02f, 2.63634454e-02f, -1.53644457e-02f, -1.73178017e-02f,
    -3.82608436e-02f, -1.87733397e-02f, 1.06252410e-01f, 1.35224625e-01f, 1.10331878e-01f, 1.08638704e-01f, 3.85665819e-02f, 5.80814555e-02f,
    1.47739416e-02f, 7.10405856e-02f, 8.22572634e-02f, 5.25529161e-02f, -4.87623326e-02f, -8.34243968e-02f, -5.52906469e-02f, -1.65275589e-03f,
    -1.75840855e-02f, 6.76449016e-03f, -6.16578981e-02f, -8.02146271e-03f, -5.11154067e-03f, 6.06931560e-02f, 1.24061666e-01f, 1.17710069e-01f,
    8.42290223e-02f, -1.40008293e-02f, -2.77775154e-02f, -6.35951161e-02f, -7.48993754e-02f, 6.18595183e-02f, 1.11456096e-01f, 9.22896415e-02f,
    1.45228624e-01f, 6.43621162e-02f, 4.45050448e-02f, -2.82244552e-02f, 5.14372112e-03f, -1.15377316e-02f, -1.26558365e-02f, -3.42285037e-02f,
    -6.40583485e-02f, -3.63841653e-03f, -1.14850670e-01f, -5.96601032e-02f, 3.66527587e-04f, 1.62935462e-02f, 5.41724153e-02f, -1.00851029e-01f,
    -3.90228629e-02f, -4.30402681e-02f, -1.62162241e-02f, 4.87748161e-02f, -3.01884930e-03f, -3.80354002e-02f, -8.37851781e-03f, -9.62828938e-03f,
    8.58098827e-03f, 6.17610104e-02f, 1.11670792e-01f, 1.32437065e-01f, 4.85876873e-02f, 1.12957349e-02f, 3.54667976e-02f, -2.16446687e-02f,
    4.09964882e-02f, 3.54220457e-02f, 3.16585749e-02f, 1.77133922e-02f, 1.62123535e-02f, -3.53823118e-02f, -1.29129201e-01f, 1.22666731e-03f,
    -1.23067498e-02f, 1.03845224e-02f, -2.59815380e-02f, -2.76283566e-02f, -1.23282328e-01f, -8.98919478e-02f, -7.79634565e-02f, 1.60482060e-02f,
    -5.41606843e-02f, -3.99301052e-02f, -6.79632202e-02f, -4.89448309e-02f, 3.45894285e-02f, 5.45557253e-02f, 1.62961125e-01f, 6.70682117e-02f,
    -6.02902379e-03f, -1.66530423e-02f, 1.20131746e-02f, -7.90314563e-03f, 2.01384574e-02f, 7.28352228e-03f, -9.79268402e-02f, -5.88688962e-02f,
    -5.02669588e-02f, -1.84880625e-02f, -2.19378900e-02f, -2.25373078e-02f, -3.01635638e-03f, -4.05019969e-02f, -4.17327927e-03f, -1.00903302e-01f,
    -1.28497437e-01f, -1.36074871e-01f, -9.34046954e-02f, -8.60809386e-02f, -9.53552499e-02f, -1.23691328e-01f, -1.37751043e-01f, -9.09751467e-03f,
    -5.55854253e-02f, 4.76554222e-02f, 1.82885006e-02f, 3.11025474e-02f, 5.00322990e-02f, -3.95760797e-02f, 1.25557296e-02f, -1.63432304e-02f,
    3.57357878e-03f, 3.69299483e-03f, -3.54612768e-02f, -4.65083271e-02f, -6.77290559e-02f, -5.26726730e-02f, -5.91112040e-02f, -1.94432344e-02f,
    -7.38484599e-03f, -2.22804844e-02f, -1.23041645e-02f, -7.09020868e-02f, -1.15464017e-01f, -1.72100574e-01f, -8.39822516e-02f, -7.05887303e-02f,
    -9.24382955e-02f, -4.14585620e-02f, -9.76791382e-02f, -6.43699467e-02f, -4.57112603e-02f, -2.85687577e-02f, 7.90507644e-02f, 5.90743572e-02f,
    7.90937766e-02f, 3.64269689e-02f, 4.29030955e-02f, 6.30707964e-02f, 1.70831922e-02f, -4.56879437e-02f, -7.14265108e-02f, -7.52888322e-02f,
    -4.19603735e-02f, -5.97214028e-02f, 3.99545990e-02f, -4.10943851e-03f, 5.96847013e-03f, -2.38690935e-02f, -1.47228502e-02f, -1.01917937e-01f,
    -4.48007770e-02f, -7.45772347e-02f, -1.19917154e-01f, -9.75044891e-02f, 3.53484787e-02f, 2.16339738e-03f, 2.73670107e-02f, -4.47457433e-02f,
    1.42262261e-02f, -8.90306849e-03f, 5.73285148e-02f, 7.36211240e-02f, 2.51576174e-02f, 1.07269295e-01f, 3.74108069e-02f, 4.24608886e-02f,
    4.48803417e-02f, 1.73080973e-02f, -4.65985090e-02f, -5.32867834e-02f, 7.84925669e-02f, -5.70864454e-02f, 6.26981109e-02f, 3.08854245e-02f,
    -5.33808582e-03f, 2.43711397e-02f, -6.72897547e-02f, -8.32950994e-02f, -4.56713066e-02f, 3.89132053e-02f, -4.29208651e-02f, -6.19272888e-02f,
    3.30947191e-02f, -4.81923996e-03f, 4.87896539e-02f, -2.40195580e-02f, -5.11696078e-02f, -7.50985295e-02f, -1.98568292e-02f, -2.08490342e-02f,
    -2.71467343e-02f, 5.71572483e-02f, 4.56621125e-02f, 3.36963404e-03f, 7.30401874e-02f, 4.40641269e-02f, -5.82133681e-02f, -5.70039153e-02f,
    4.85051647e-02f, 8.99392925e-03f, -2.42150985e-02f, -1.46799982e-02f, 1.13472715e-02f, -1.91726349e-02f, -7.46822134e-02f, -9.23986733e-02f,
    -8.02867040e-02f, -3.13942358e-02f, -5.51359393e-02f, -4.04663123e-02f, -1.98719371e-02f, 2.23563537e-02f, -9.86447334e-02f, -6.32278547e-02f,
    -7.33097717e-02f, -6.57270774e-02f, -8.87593776e-02f, -8.86065012e-04f, 4.43649851e-02f, 7.28861168e-02f, 7.47769699e-02f, 5.50961047e-02f,
    6.97979629e-02f, 4.34092470e-02f, -1.56310517e-02f, -2.90024951e-02f, -9.41615105e-02f, 1.13594891e-04f, 1.84454266e-02f, -3.47417705e-02f,
    -8.18731077e-03f, -2.28228793e-03f, -3.81096043e-02f, -1.63128912e-01f, -1.09775312e-01f, 4.87547182e-03f, 1.02403238e-02f, -2.33317651e-02f,
    3.60100828e-02f, 2.43694093e-02f, -3.45640555e-02f, -5.84977753e-02f, -1.00080498e-01f, -1.48336291e-01f, -1.08758934e-01f, -6.09555580e-02f,
    -1.86890066e-02f, -2.69100396e-03f, 4.51236404e-03f, 7.10648596e-02f, 1.00015454e-01f, 3.85783464e-02f, 3.21931057e-02f, -5.14469668e-03f,
    -6.11321181e-02f, -2.98780650e-02f, 2.36807950e-02f, 2.62107961e-02f, -1.26468111e-02f, -2.06916686e-02f, 5.91207668e-03f, 7.23255333e-03f,
    2.23168638e-02f, -2.75347847e-02f, -5.01176678e-02f, -7.42874248e-03f, -4.06945311e-02f, -4.21707667e-02f, -2.51045153e-02f, -9.16077793e-02f,
    -1.58164904e-01f, -1.61239654e-01f, -7.07660764e-02f, -1.41534045e-01f, -1.14677452e-01f, -1.21187173e-01f, -1.00864038e-01f, -9.05645043e-02f,
    -7.13011250e-03f, -1.99964587e-02f, -6.25870079e-02f, -3.96248288e-02f, -5.57207130e-02f, 1.12572946e-02f, 9.29552317e-03f, 5.28958812e-03f,
    2.13116147e-02f, -2.84689851e-02f, 1.33642852e-02f, 7.47752562e-03f, 4.06182706e-02f, 3.90231237e-02f, 7.34503614e-03f, 4.64060120e-02f,
    1.08657572e-02f, -4.11408767e-02f, -7.57474899e-02f, -9.72897857e-02f, -9.68847498e-02f, -6.43793270e-02f, -4.47884202e-02f, -8.65405947e-02f,
    -1.31621167e-01f, -9.49337482e-02f, -1.29931688e-01f, -1.18139468e-01f, -1.22153774e-01f, -6.71261773e-02f, -4.78651710e-02f, -2.73456946e-02f,
    -1.96017213e-02f, -3.54079157e-02f, -2.32530534e-02f, -2.28606910e-03f, -2.91582067e-02f, -8.01998749e-03f, -1.06206760e-02f, 2.44039670e-03f,
    3.00021730e-02f, 1.00411000e-02f, 2.09304728e-02f, -7.41979182e-02f, -4.92663197e-02f, -4.58759367e-02f, 2.88549563e-05f, -7.28105232e-02f,
    -7.19305873e-02f, 3.68794575e-02f, 2.06473214e-05f, 2.08246075e-02f, 4.89395410e-02f, 6.31647483e-02f, 2.40300456e-03f, -2.01837774e-02f,
    -2.92589027e-03f, -3.64256352e-02f, 1.03942119e-01f, -2.02012621e-02f, 3.30155380e-02f, -1.40952095e-02f, 1.79205351e-02f, -1.23899505e-02f,
    -1.55463219e-02f, 8.50034133e-03f, 1.11001097e-02f, 8.32431763e-03f, -6.33709878e-03f, 3.05278637e-02f, -1.63865611e-02f, 4.63894755e-03f,
    1.44855268e-02f, -3.50133926e-02f, 1.47504583e-02f, -2.17538998e-02f, 1.55233368e-02f, 1.20082451e-03f, -2.61137560e-02f, -2.94169579e-02f,
    7.59836659e-03f, 3.25045474e-02f, 2.30007097e-02f, -1.98780484e-02f, 2.67347097e-02f, 7.36095756e-03f, 1.39024109e-04f, -9.57357883e-03f,
    3.42445783e-02f, -2.68875621e-02f, 2.78829448e-02f, 2.70972736e-02f, 7.35866651e-03f, 1.13101080e-02f, -1.89985689e-02f, 1.59034058e-02f,
    1.44815817e-03f, -1.66869648e-02f, 5.18960394e-02f, 1.14643991e-01f, 6.72759041e-02f, 3.02294958e-02f, 1.00679442e-01f, 1.02400295e-01f,
    1.18446819e-01f, 8.19723681e-02f, 1.86620932e-02f, 1.03320241e-01f, 4.35564704e-02f, 5.20185381e-02f, 1.18669569e-01f, 8.01112130e-02f,
    8.14158991e-02f, 2.47937180e-02f, 4.62126136e-02f, 1.54135479e-02f, 2.20783688e-02f, 2.54861638e-02f, -2.58177910e-02f, 1.17672980e-02f,
    4.82008234e-03f, 3.40251960e-02f, -2.72959098e-02f, -2.25749798e-02f, 3.34291570e-02f, -2.64088307e-02f, 6.15029447e-02f, 9.71416235e-02f,
    1.11446850e-01f, 6.54337257e-02f, 1.57039374e-01f, 1.07617505e-01f, 1.56313926e-01f, 7.44532198e-02f, 7.60838538e-02f, 1.27901122e-01f,
    1.25450611e-01f, 1.13053106e-01f, 1.54874265e-01f, 1.01629451e-01f, 1.04284689e-01f, 1.00043051e-01f, 7.46848211e-02f, 2.39635780e-02f,
    -3.33138369e-02f, -6.29370334e-03f, -2.54539251e-02f, -3.17075700e-02f, -3.16228457e-02f, -8.92050564e-04f, 6.20968677e-02f, -2.05577314e-02f,
    2.54644416e-02f, 6.46605119e-02f, 9.13668722e-02f, 7.56013766e-02f, 1.50021017e-01f, 1.48810908e-01f, 1.57191992e-01f, 1.91000059e-01f,
    1.97447896e-01f, 1.60610735e-01f, 8.18611383e-02f, 1.33391976e-01f, 9.57000256e-02f, 1.26048580e-01f, 1.23844005e-01f, 1.72156841e-01f,
    1.54429153e-01f, 1.71196163e-01f, 7.38030821e-02f, 5.48134148e-02f, 1.54183246e-02f, 2.51575699e-03f, -2.38425229e-02f, 3.15332748e-02f,
    -1.63830183e-02f, -9.65949148e-03f, -1.23018315e-02f, -1.12780929e-03f, 4.47075441e-02f, 3.19148600e-02f, -1.46094523e-03f, 1.01779245e-01f,
    1.21138714e-01f, 1.42081052e-01f, 2.10774556e-01f, 1.81698322e-01f, 1.04697317e-01f, 8.34002048e-02f, 1.05301172e-01f, 1.38064310e-01f,
    8.58550072e-02f, 1.29172087e-01f, 8.62577185e-02f, 1.10274166e-01f, 8.81135836e-02f, 9.88660678e-02f, 1.00747414e-01f, 8.97410512e-02f,
    7.15268329e-02f, -1.77656878e-02f, -2.81539224e-02f, 2.39407234e-02f, -2.74726748e-03f, -3.28216702e-03f, 1.76287070e-02f, -6.41198829e-02f,
    4.71180752e-02f, -4.55300622e-02f, 2.18392797e-02f, 3.12957168e-02f, 1.96280424e-02f, 3.15904617e-02f, 1.17978342e-01f, -3.41758393e-02f,
    2.54431646e-02f, -3.08543332e-02f, 2.62979325e-02f, 3.09799351e-02f, 6.58000037e-02f, 8.36911276e-02f, 1.23123974e-01f, 6.56860545e-02f,
    1.31460518e-01f, 1.11017294e-01f, 1.36486769e-01f, 1.22410782e-01f, 1.02154143e-01f, 7.00620040e-02f, 2.87169497e-02f, -2.90362556e-02f,
    2.37289406e-02f, 2.08393447e-02f, 2.69682780e-02f, -2.61885729e-02f, 1.52463093e-03f, 7.12791607e-02f, 6.80430830e-02f, 3.68104205e-02f,
    -2.83065028e-02f, 1.23909377e-02f, -6.13691472e-02f, -5.06854579e-02f, -6.01575430e-03f, 1.30852889e-02f, -3.54851186e-02f, -2.94573866e-02f,
    -4.81182039e-02f, -2.43167859e-02f, 2.14225706e-02f, 4.74318303e-02f, 6.12444477e-03f, 6.71633929e-02f, 5.30864336e-02f, 1.19601831e-01f,
    2.16190338e-01f, 1.23191215e-01f, 1.00816399e-01f, -5.39602293e-03f, -2.37975419e-02f, 4.08294722e-02f, -8.90832245e-02f, -6.70595020e-02f,
    4.47068550e-02f, 5.16536571e-02f, -2.03938652e-02f, 2.50418521e-02f, 3.51888612e-02f, -7.91840926e-02f, -3.47400717e-02f, -1.87744740e-02f,
    -4.94888611e-02f, -8.04927722e-02f, -3.01399082e-02f, -4.70572487e-02f, -7.99238682e-02f, -6.65799007e-02f, 1.54388975e-02f, -5.80223510e-04f,
    -9.91862919e-03f, 1.34137878e-03f, 6.22223578e-02f, 4.22691107e-02f, 7.27368295e-02f, 9.79141146e-02f, 6.91704601e-02f, -3.61204930e-02f,
    3.35391797e-02f, -4.74021211e-02f, -1.93568785e-02f, -4.49479222e-02f, -4.23937403e-02f, -2.39628591e-02f, -4.57103997e-02f, 6.12358097e-03f,
    -7.59806633e-02f, -4.95166332e-03f, 1.62169593e-03f, 6.18251925e-03f, 2.56572571e-02f, -1.18957646e-02f, 1.06277969e-03f, -5.98912574e-02f,
    -6.14224821e-02f, 1.35075394e-02f, -1.60705689e-02f, 4.21543345e-02f, 9.17265378e-03f, -2.04530498e-03f, 1.92451905e-02f, 3.20184343e-02f,
    1.19325183e-01f, 9.28940773e-02f, 1.39489202e-02f, 1.65944062e-02f, -4.08626124e-02f, -5.83856143e-02f, 1.72303151e-02f, -4.21519242e-02f,
    -2.83544790e-02f, -3.68936919e-02f, -5.59570044e-02f, 4.19042967e-02f, -2.45362576e-02f, -5.13568288e-04f, -4.21343818e-02f, -1.02798464e-02f,
    5.90865221e-03f, 1.61519051e-02f, 1.63166150e-02f, -1.60525609e-02f, -1.92403700e-02f, -2.51208548e-03f, -2.91761886e-02f, -3.68784852e-02f,
    -3.14071914e-03f, -5.72574718e-05f, 5.48408329e-02f, 6.17401563e-02f, 1.66808486e-01f, 1.63650334e-01f, 5.12394682e-02f, -6.64438531e-02f,
    -3.40127908e-02f, -4.69553247e-02f, -1.58639997e-02f, 1.81958545e-02f, 2.38471273e-02f, -2.91312896e-02f, -2.57661100e-02f, -3.26055475e-02f,
    -6.65156394e-02f, -2.43515968e-02f, -6.13451824e-02f, 3.31942877e-03f, 2.36591827e-02f, 4.71498035e-02f, 4.06247899e-02f, 6.69670403e-02f,
    -5.81012201e-03f, 2.54820511e-02f, -5.55657335e-02f, -9.67699140e-02f, -4.38216180e-02f, -4.32114564e-02f, -4.97705266e-02f, 9.10834149e-02f,
    2.30210230e-01f, 2.26312980e-01f, 9.63948220e-02f, 5.87660354e-03f, -6.59516230e-02f, -7.16421753e-02f, -4.83835302e-02f, -6.49376586e-02f,
    -7.89833721e-03f, -6.13673106e-02f, -3.51524795e-03f, -3.61117348e-02f, -4.83453162e-02f, -5.05997464e-02f, -5.55109270e-02f, 2.41345912e-02f,
    7.76888952e-02f, 1.42425314e-01f, 6.83324412e-02f, 1.89863481e-02f, -7.58656207e-03f, -2.09545121e-02f, -4.95588332e-02f, -6.13758303e-02f,
    -1.34456903e-01f, -1.72763348e-01f, -1.96904957e-01f, -1.02934483e-02f, 7.38013461e-02f, 1.11232080e-01f, 2.48485282e-02f, 1.61370058e-02f,
    -6.07895255e-02f, -4.79218066e-02f, -8.35266262e-02f, -8.53160173e-02f, -6.58785254e-02f, -1.14902861e-01f, -7.39668459e-02f, -4.30815890e-02f,
    -4.39615734e-02f, 7.81716034e-03f, 8.63713473e-02f, 7.87624866e-02f, 1.80042773e-01f, 1.07837476e-01f, 3.29971276e-02f, -2.17056144e-02f,
    -4.75263298e-02f, -7.56763369e-02f, -7.74262622e-02f, -1.32538855e-01f, -1.78116366e-01f, -1.44501090e-01f, -2.01149344e-01f, -1.63405672e-01f,
    -4.32848744e-02f, 1.02888094e-03f, -2.22682282e-02f, 9.29595335e-05f, 3.26222815e-02f, -3.02633904e-02f, -1.27985299e-01f, -6.98511377e-02f,
    -9.72754434e-02f, -8.68563950e-02f, 1.19380327e-02f, -8.71790946e-03f, 3.09796557e-02f, 4.94955629e-02f, 5.47680855e-02f, 1.03475831e-01f,
    1.85936064e-01f, 6.92920461e-02f, 3.07550188e-02f, -4.34602201e-02f, -1.03757158e-01f, -4.00413089e-02f, -7.01468289e-02f, -7.26052374e-02f,
    -1.06297262e-01f, -8.12605694e-02f, -6.76840097e-02f, -3.87032703e-02f, 1.03382869e-02f, -6.41578063e-03f, 2.48600710e-02f, -2.78580636e-02f,
    -1.64776146e-02f, -5.69989905e-02f, -2.98872590e-02f, -7.49446452e-02f, -1.05202943e-01f, -8.93747732e-02f, -3.13637368e-02f, 9.08053759e-03f,
    2.65474487e-02f, 6.72897249e-02f, 4.61010225e-02f, 3.76737565e-02f, 9.27600712e-02f, 2.47494802e-02f, 1.32929655e-02f, -5.13495281e-02f,
    -5.04173599e-02f, -8.40210840e-02f, -5.59509173e-02f, -1.13986075e-01f, -6.44523576e-02f, -6.57996582e-03f, -2.63291486e-02f, 4.12316918e-02f,
    9.97406766e-02f, 7.47140590e-03f, -6.00742958e-02f, -2.78651807e-02f, -3.11406907e-02f, 3.55663449e-02f, 2.41765082e-02f, -3.76269929e-02f,
    -8.45000967e-02f, -5.89111671e-02f, -5.46496101e-02f, -7.17856921e-03f, 5.77923171e-02f, 4.79654334e-02f, 2.89580747e-02f, 4.84628119e-02f,
    3.34695913e-02f, 4.73685116e-02f, 7.75005743e-02f, -5.76227680e-02f, -5.02298363e-02f, -7.38719404e-02f, -4.17279750e-02f, 1.13224601e-02f,
    -4.14781366e-03f, -1.53727680e-02f, -9.81317461e-03f, 1.03035972e-01f, 1.36900797e-01f, 1.25150129e-01f, -1.05352655e-01f, 4.19803411e-02f,
    3.42600904e-02f, -1.01407226e-02f, 8.80380720e-02f, 4.26087454e-02f, -6.04442507e-02f, -4.29495871e-02f, -3.50397974e-02f, -4.46918942e-02f,
    -2.69080307e-02f, 2.81463861e-02f, 4.02427427e-02f, 3.39599550e-02f, -1.60939842e-02f, 1.00102918e-02f, 2.41424050e-02f, -1.87192876e-02f,
    -8.43347684e-02f, -2.30013374e-02f, -5.42550161e-03f, 2.49464065e-02f, -1.09483479e-02f, 5.35041913e-02f, 1.03685178e-01f, 1.35541335e-01f,
    1.61223128e-01f, 1.90043952e-02f, -8.63260552e-02f, -1.18022464e-01f, 2.25628652e-02f, 4.16414216e-02f, 2.12474279e-02f, 1.27781823e-01f,
    5.21092154e-02f, 2.09697764e-02f, 4.15592119e-02f, -2.80272979e-02f, -6.39351681e-02f, -7.75639191e-02f, 2.09528431e-02f, -7.61982100e-03f,
    -6.94653094e-02f, -7.42930695e-02f, -3.38362120e-02f, -5.84974103e-02f, -1.37790395e-02f, 2.51035616e-02f, 5.33428937e-02f, 7.71445408e-02f,
    2.48607453e-02f, 1.32836336e-02f, 1.24762259e-01f, 1.36880621e-01f, 8.38380903e-02f, 2.01974460e-03f, 2.96347458e-02f, 3.25381011e-03f,
    -2.70725712e-02f, 1.91630475e-04f, 6.37738034e-02f, 2.04280287e-01f, 7.52445832e-02f, 7.47844502e-02f, 5.08095510e-02f, 5.47432750e-02f,
    4.38423902e-02f, -3.76190208e-02f, 4.69888048e-03f, 4.08923905e-03f, 4.67132144e-02f, -2.26798095e-02f, -5.47718839e-04f, 4.32138294e-02f,
    5.62568158e-02f, 8.87621045e-02f, 6.58405721e-02f, 5.72742037e-02f, 3.51998061e-02f, 4.46383767e-02f, 1.79114968e-01f, 1.68499783e-01f,
    1.57813609e-01f, 4.85630184e-02f, -9.80165554e-04f, -5.37535213e-02f, -2.51742154e-02f, 2.07836647e-02f, 5.25472015e-02f, 1.84791788e-01f,
    1.03707880e-01f, 1.18214652e-01f, 1.02725342e-01f, 9.09573063e-02f, 7.74513707e-02f, 1.34218112e-01f, 6.15722798e-02f, 1.03858858e-01f,
    9.81685892e-02f, 8.29325914e-02f, 1.01992846e-01f, 1.41966701e-01f, 1.43431842e-01f, 6.79927096e-02f, 1.19192101e-01f, 2.34760921e-02f,
    4.67868894e-02f, 9.90630984e-02f, 1.19998746e-01f, 3.02302111e-02f, -1.86806545e-02f, 1.52399354e-02f, -9.48562548e-02f, -6.24004826e-02f,
    -2.23964155e-02f, 4.69719097e-02f, 8.69199261e-03f, 1.30218551e-01f, 8.42541903e-02f, 7.12508410e-02f, 6.30066544e-02f, 9.52938572e-02f,
    1.29890159e-01f, 1.51241541e-01f, 1.16650075e-01f, 1.26222461e-01f, 1.20126531e-01f, 1.09036960e-01f, 1.13646418e-01f, 1.20199054e-01f,
    1.28102705e-01f, 9.11006555e-02f, 1.43140808e-01f, 1.02779314e-01f, 7.84490108e-02f, 1.37888268e-01f, 1.21881068e-01f, 9.50766578e-02f,
    -4.76167426e-02f, 3.45749706e-02f, -3.32243158e-03f, 1.93122253e-02f, 2.96725668e-02f, -2.00386122e-02f, 4.61676084e-02f, 1.46352023e-01f,
    7.38363862e-02f, 7.54843131e-02f, 6.71898806e-03f, 5.58561347e-02f, 4.43010479e-02f, 6.61379322e-02f, 8.73977393e-02f, 6.95480108e-02f,
    9.66879874e-02f, 1.54151380e-01f, 8.83042291e-02f, 1.22313932e-01f, 7.85711855e-02f, 8.59593973e-02f, 1.20164096e-01f, 1.15817174e-01f,
    8.71797651e-02f, 1.12305671e-01f, 1.03827134e-01f, 3.53619247e-03f, -6.92732930e-02f, 3.38136666e-02f, 1.84414405e-02f, -3.08562871e-02f,
    2.28632651e-02f, -2.32050475e-02f, 9.64248925e-02f, 1.26047269e-01f, 8.88613462e-02f, 2.47468185e-02f, 2.16581393e-02f, -1.25969667e-02f,
    1.46830929e-02f, 8.94519128e-03f, 4.06011790e-02f, 9.50983837e-02f, 7.78565854e-02f, 9.81734470e-02f, 5.82779944e-02f, 1.03040323e-01f,
    9.83424708e-02f, 9.52694789e-02f, 1.15807906e-01f, 1.29212216e-01f, 7.94989765e-02f, 1.85246505e-02f, 4.90457602e-02f, -3.53721231e-02f,
    -1.03354566e-01f, -1.76399294e-02f, 9.30984691e-02f, 3.32173519e-02f, 2.18672417e-02f, -3.42773423e-02f, 8.64538476e-02f, 1.54807851e-01f,
    6.17820919e-02f, 6.64884076e-02f, 5.89807099e-03f, -2.20685862e-02f, 2.09259447e-02f, 6.77667335e-02f, 2.49137580e-02f, 7.54935294e-02f,
    6.98282896e-03f, 2.48633996e-02f, 4.95971702e-02f, 6.04138449e-02f, 4.33778353e-02f, 5.53727150e-02f, 9.09905285e-02f, 4.01895940e-02f,
    2.48153470e-02f, -2.55544577e-02f, -5.36021851e-02f, -4.49970452e-04f, 2.21117008e-02f, 3.23861875e-02f, 9.61795356e-03f, -2.06759200e-03f,
    -2.06962228e-03f, 2.53198296e-02f, 8.00431296e-02f, 7.97755271e-02f, 8.21626335e-02f, -1.55117009e-02f, -7.77313160e-03f, -3.66628245e-02f,
    -1.71344075e-02f, 3.82926054e-02f, -1.10625131e-02f, 3.78499739e-03f, 2.92969514e-02f, 6.11990131e-03f, 1.46669326e-02f, -1.63177457e-02f,
    -6.09598728e-03f, 4.27399129e-02f, 2.17503440e-02f, 1.00612286e-02f, -9.71437022e-02f, -5.76815382e-02f, 1.02598993e-02f, -2.71397382e-02f,
    2.07821410e-02f, 3.06426194e-02f, -1.58075318e-02f, -2.63553951e-02f, 3.21278684e-02f, -2.40756329e-02f, -6.66408986e-03f, 3.71818542e-02f,
    1.26893651e-02f, -1.03072263e-01f, 1.04815257e-03f, -6.58079833e-02f, -6.69740513e-02f, -4.32878807e-02f, -3.11009400e-02f, -7.39343986e-02f,
    -7.95897376e-03f, -6.54646009e-02f, -3.31499316e-02f, -7.99743533e-02f, -4.72582877e-02f, -9.87864733e-02f, -7.67893046e-02f, -7.09198117e-02f,
    -1.05699748e-01f, -6.62341043e-02f, 4.20367019e-03f, 7.32241571e-02f, 1.98600981e-02f, 9.53942910e-03f, -2.05561016e-02f, 3.11214589e-02f,
    2.08827443e-02f, -2.14830134e-02f, 2.08179839e-02f, 2.51998790e-02f, -2.61440296e-02f, -9.72944051e-02f, -8.95167738e-02f, -1.33496165e-01f,
    -1.12179577e-01f, -1.28434271e-01f, -1.46777377e-01f, -1.09699428e-01f, -6.76583573e-02f, -1.85060158e-01f, -2.08740532e-01f, -9.12783891e-02f,
    -1.06368892e-01f, -1.32673994e-01f, -1.47716612e-01f, -1.04001649e-01f, -1.06017128e-01f, -7.08698109e-02f, -4.30722311e-02f, -4.79929820e-02f,
    2.05709636e-02f, 3.35710496e-03f, 1.40999891e-02f, 3.27971987e-02f, 2.71277390e-02f, 2.34901421e-02f, -1.49634406e-02f, 3.31495963e-02f,
    -3.08962949e-02f, -2.36973651e-02f, -3.13923471e-02f, -4.51096073e-02f, -3.56157757e-02f, -3.98635454e-02f, -8.15927535e-02f, 1.99269298e-02f,
    1.09521509e-03f, -4.55767550e-02f, -1.60800487e-01f, -5.45778424e-02f, -4.19657677e-02f, -3.65935601e-02f, -1.30275771e-01f, -4.77127284e-02f,
    -5.91355562e-02f, -3.59018780e-02f, -2.59123426e-02f, 8.72872770e-03f, 3.32308747e-02f, 3.33069004e-02f, 6.34994358e-03f, 3.51049006e-04f,
    -1.23898052e-02f, -3.72588262e-03f, -1.46781169e-02f, 7.14606047e-03f, 2.37070359e-02f, -1.29151046e-02f, 1.86722688e-02f, 2.20357813e-02f,
    4.47014719e-03f, -7.24554062e-04f, -3.15238126e-02f, 2.10829861e-02f, 1.79218501e-03f, -3.32804210e-02f, -3.64453197e-02f, -2.58328393e-03f,
    -1.46321524e-02f, 3.27560306e-03f, -1.82270072e-02f, 3.08823697e-02f, -8.46810453e-03f, -3.49270962e-02f, 1.06412992e-02f, -3.21896896e-02f,
    3.56519930e-02f, 3.15841846e-02f, -2.29492150e-02f, 2.73316316e-02f, -3.44761722e-02f, -2.39656363e-02f, -2.01297291e-02f, -3.17990147e-02f,
    -2.33243108e-02f, -3.36476415e-03f, -3.38118384e-03f, -1.09942548e-01f, -5.75914457e-02f, 1.00700511e-02f, 1.54154189e-02f, -5.63171804e-02f,
    -1.24546103e-01f, -3.22349593e-02f, -1.67034138e-02f, 1.23868668e-02f, -1.06912129e-01f, -5.65701351e-02f, 1.85517706e-02f, -8.18964168e-02f,
    -4.25151177e-02f, -5.33999838e-02f, -7.40521997e-02f, -3.26011106e-02f, 2.34858841e-02f, 1.02105625e-02f, 1.60362720e-02f, 2.77301669e-03f,
    3.48162390e-02f, -1.36558637e-02f, 3.00860144e-02f, -2.33902633e-02f, 6.97190538e-02f, -2.63246298e-02f, -3.96936722e-02f, -7.71674365e-02f,
    -1.50180571e-02f, -6.54644659e-03f, -5.24629168e-02f, -7.01387674e-02f, -4.59610708e-02f, -3.78274247e-02f, -1.89343430e-02f, -3.72055359e-03f,
    -6.17886819e-02f, -3.14226970e-02f, -7.56770074e-02f, 3.08566969e-02f, 2.87203789e-02f, 2.96684094e-02f, 5.13592921e-03f, -1.07644387e-02f,
    1.31676893e-03f, -4.99437302e-02f, -2.19689701e-02f, -3.84076312e-03f, -7.87595287e-03f, -1.71203744e-02f, -2.61655487e-02f, 2.63049193e-02f,
    1.33077689e-02f, -5.50090149e-02f, -1.59580447e-02f, -4.42318879e-02f, -1.11570247e-01f, -6.38014749e-02f, -5.16535491e-02f, -1.07913330e-01f,
    -1.66805163e-01f, -1.80224016e-01f, -1.48696616e-01f, -6.71095625e-02f, -7.97679424e-02f, -1.45425841e-01f, -8.11675116e-02f, -1.95646565e-02f,
    -4.52543236e-02f, -4.92831226e-03f, 3.86740118e-02f, -6.82013948e-03f, 3.01508941e-02f, -1.04041703e-01f, 2.53459550e-02f, -3.25875580e-02f,
    3.09969746e-02f, 9.85035673e-03f, 2.11565327e-02f, -1.23294257e-02f, 1.34657314e-02f, 4.66500446e-02f, -1.43730687e-02f, -1.26275374e-02f,
    -1.58684477e-02f, -5.53267486e-02f, -1.00906022e-01f, -1.06482394e-01f, -7.84676373e-02f, -2.32131146e-02f, -6.84481487e-02f, -7.75377452e-02f,
    -7.60982260e-02f, -9.53054801e-02f, -1.07258596e-01f, 9.85796098e-03f, 4.12938222e-02f, 5.59795499e-02f, 3.60828117e-02f, 7.54728839e-02f,
    4.31509763e-02f, 3.05814249e-03f, 1.02550685e-02f, 2.36705691e-03f, 1.09839067e-03f, -2.65580341e-02f, -3.25441062e-02f, -2.65421551e-02f,
    4.22557862e-03f, 7.28939623e-02f, 6.79203197e-02f, 4.75714682e-03f, -1.06821265e-02f, -3.32401432e-02f, -3.54729965e-02f, -5.53053580e-02f,
    8.66793212e-04f, -1.79346446e-02f, 1.90315535e-03f, -5.04222289e-02f, -1.04563884e-01f, -7.56937861e-02f, -9.07399729e-02f, -3.30298133e-02f,
    -4.05983403e-02f, -8.43841303e-03f, -3.98013107e-02f, 2.66149081e-02f, 8.29568692e-03f, -9.66267437e-02f, -3.29196863e-02f, 3.07984538e-02f,
    -1.53052434e-03f, -3.77178937e-03f, 2.09654104e-02f, 3.30250431e-03f, -1.07566675e-03f, 7.42962729e-05f, -2.83978228e-03f, -9.78206098e-03f,
    3.36862765e-02f, -4.09480371e-02f, 1.84752978e-03f, 4.60828617e-02f, 2.00525653e-02f, -6.66770898e-03f, 3.14497948e-03f, 9.73762572e-03f,
    1.90622788e-02f, -2.44683102e-02f, -3.87125276e-02f, 7.36333383e-03f, 5.63673601e-02f, 4.13397551e-02f, 4.41394164e-04f, 2.00952441e-02f,
    -6.56225905e-02f, -3.41560096e-02f, -2.79505253e-02f, -5.18774847e-03f, -3.37988511e-03f, -4.22017276e-02f, 5.92509992e-02f, 1.03434101e-01f,
    -3.16734649e-02f, -2.40002442e-02f, -4.51789387e-02f, -3.48600112e-02f, -2.88687740e-02f, 4.54687141e-02f, 5.96312545e-02f, 6.21183440e-02f,
    4.08619009e-02f, 1.88468713e-02f, 4.94496189e-02f, 4.63740230e-02f, 1.85298882e-02f, 4.25112844e-02f, 7.85574093e-02f, 8.54111612e-02f,
    9.54513550e-02f, 1.40329693e-02f, -4.05348688e-02f, -1.77706573e-02f, -1.29111394e-01f, -7.30501488e-02f, -4.55603823e-02f, -2.03530537e-03f,
    2.64239833e-02f, 5.26545681e-02f, 2.48189941e-02f, 2.33239885e-02f, -1.35652348e-02f, 9.11763031e-03f, -3.65509978e-03f, 1.22002801e-02f,
    2.67079957e-02f, 3.04456316e-02f, 2.23896299e-02f, 4.54003066e-02f, 4.25284542e-02f, 1.55651588e-02f, -6.01265114e-03f, 2.83863917e-02f,
    -5.23173669e-03f, 8.99177417e-03f, 5.44853061e-02f, 3.24416533e-02f, 1.07917041e-02f, 6.79667220e-02f, -1.52622843e-02f, -7.27275163e-02f,
    -1.42198861e-01f, -8.39891955e-02f, -5.84117183e-03f, 1.09125879e-02f, 3.88719887e-02f, 3.18937600e-02f, 1.86505951e-02f, 5.91479801e-02f,
    1.95172261e-02f, -3.03146765e-02f, 2.62733037e-03f, 3.41634192e-02f, 4.12713736e-02f, 1.67645682e-02f, 3.47938053e-02f, 2.38851216e-02f,
    7.43824802e-03f, -1.67174470e-02f, 2.07787957e-02f, 1.94251202e-02f, -1.46194492e-02f, 2.67714076e-02f, 3.70910577e-02f, 2.08992381e-02f,
    3.22404765e-02f, 2.22616550e-02f, -2.94692237e-02f, -7.25504607e-02f, -9.19240117e-02f, -1.53336287e-01f, -3.13140191e-02f, 6.90381005e-02f,
    3.68143916e-02f, 4.71891202e-02f, 4.27591279e-02f, 1.05746975e-02f, 2.76280916e-03f, 1.55182844e-02f, 3.46749648e-02f, 3.05211227e-02f,
    8.68725330e-02f, 7.85012096e-02f, 8.85769725e-02f, 6.13101758e-03f, 3.52325328e-02f, 1.28809372e-02f, 1.26879215e-02f, 5.04010133e-02f,
    3.93738560e-02f, -1.26673048e-02f, 6.24728724e-02f, 8.06644037e-02f, 8.11108798e-02f, 1.48762017e-02f, 3.51959430e-02f, -3.86299863e-02f,
    -1.70229226e-01f, -1.88780859e-01f, -9.26268622e-02f, -2.44057309e-02f, 6.52814806e-02f, 9.14881080e-02f, 5.22714704e-02f, 8.61826073e-03f,
    2.72985138e-02f, 7.15299770e-02f, 3.59970406e-02f, 1.00452095e-01f, 6.29728064e-02f, 8.53216052e-02f, 9.12168026e-02f, 9.59285498e-02f,
    -9.93429124e-03f, -2.45965831e-02f, 1.03353985e-01f, 1.23379707e-01f, 1.15462452e-01f, 7.87950754e-02f, 5.05762883e-02f, 4.34439778e-02f,
    8.43596011e-02f, 9.39177051e-02f, 1.07398503e-01f, -1.32888854e-02f, -6.56311810e-02f, -1.07600451e-01f, -3.98247950e-02f, 2.33413912e-02f,
    4.69323844e-02f, 2.75378413e-02f, 8.15024376e-02f, 8.73631239e-02f, 1.36377096e-01f, 1.13242544e-01f, 5.62293530e-02f, 1.06631756e-01f,
    1.55644983e-01f, 1.28918260e-01f, 5.69500774e-02f, -3.47409733e-02f, -8.40591341e-02f, -5.15062064e-02f, 1.81189999e-01f, 1.54968828e-01f,
    1.58205539e-01f, 1.06024511e-01f, 1.09821372e-01f, 5.38763478e-02f, 1.18499830e-01f, 1.39104098e-01f, 9.44929719e-02f, 7.39818439e-02f,
    -6.44895732e-02f, -1.25317439e-01f, -8.34883079e-02f, 3.24733295e-02f, 1.84073262e-02f, 3.62530053e-02f, 1.42968476e-01f, 9.05614793e-02f,
    1.57305986e-01f, 1.22721188e-01f, 1.22948214e-01f, 1.43874183e-01f, 6.59395903e-02f, 9.33382735e-02f, 1.68859437e-02f, -1.42392874e-01f,
    -1.73034772e-01f, -3.16349939e-02f, 1.44948050e-01f, 1.43793926e-01f, 1.14675514e-01f, 1.19291142e-01f, 1.03335291e-01f, 9.28551182e-02f,
    1.16275743e-01f, 1.31037027e-01f, 8.17862749e-02f, 8.74531828e-03f, -5.22392616e-02f, -1.17921762e-01f, -8.46390352e-02f, -4.33626510e-02f,
    2.83601768e-02f, 1.26531953e-02f, 6.65422678e-02f, 7.38103390e-02f, 1.31041706e-01f, 1.04222946e-01f, 1.30438715e-01f, 4.55507450e-02f,
    9.21677426e-02f, -1.35796042e-02f, -1.54637182e-02f, -1.05031207e-01f, -4.46418598e-02f, 6.93036094e-02f, 1.37833938e-01f, 1.14604369e-01f,
    9.46457610e-02f, 7.00644553e-02f, 5.76773658e-02f, 1.23050310e-01f, 3.91818620e-02f, -1.49210193e-03f, 2.45826840e-02f, -3.36075500e-02f,
    -1.67280212e-01f, -1.34033814e-01f, -1.05174519e-01f, -3.35844122e-02f, -1.98983643e-02f, 4.98540811e-02f, 1.13191225e-01f, 4.76179644e-02f,
    -1.12951128e-03f, 3.16206552e-02f, 7.07966387e-02f, 6.21003993e-02f, 4.79576476e-02f, -1.10871764e-02f, -3.59825715e-02f, 5.03843557e-03f,
    4.16618846e-02f, 8.44186097e-02f, 1.23190694e-01f, 4.53614555e-02f, 1.01237804e-01f, 6.29233345e-02f, 8.22622478e-02f, 1.31648649e-02f,
    4.06566411e-02f, 5.07512726e-02f, 1.11596361e-02f, -8.29105154e-02f, -2.18210444e-01f, -1.65108114e-01f, -5.08507229e-02f, -5.34715224e-03f,
    -3.05953976e-02f, -1.86876059e-02f, -3.60841043e-02f, -3.73789519e-02f, -5.97233213e-02f, -2.10418701e-02f, 6.23371899e-02f, 6.98332265e-02f,
    1.03524297e-01f, -7.24611105e-03f, 7.35327043e-03f, -1.20728808e-02f, 3.06956843e-02f, 3.89578231e-02f, 7.41852894e-02f, 6.93217814e-02f,
    2.55203061e-02f, 1.42530221e-02f, 9.06337425e-03f, -1.75905861e-02f, -5.67160882e-02f, -1.23771362e-01f, -9.69085172e-02f, -1.64173707e-01f,
    -1.80901483e-01f, -1.17463328e-01f, -1.33471966e-01f, -1.09984083e-02f, 3.83600593e-03f, -6.96898112e-03f, -8.42540860e-02f, -1.29655913e-01f,
    -1.17853038e-01f, -4.59122807e-02f, -7.06211925e-02f, 1.69728380e-02f, 5.34928346e-04f, 1.38489269e-02f, 1.54645108e-02f, 3.17501761e-02f,
    2.16607116e-02f, 7.44768158e-02f, 1.10044263e-01f, 1.48926629e-02f, 2.08039191e-02f, -3.25014181e-02f, -1.39230676e-02f, -3.08150742e-02f,
    -7.38576287e-03f, -6.42378926e-02f, -9.35643464e-02f, -1.00550272e-01f, -1.40748397e-01f, -1.62356436e-01f, -1.32532761e-01f, 2.41025239e-02f,
    -2.47384962e-02f, 2.84609795e-02f, -3.19011323e-02f, -7.85347447e-02f, -7.55794421e-02f, -1.21007942e-01f, -9.24751982e-02f, -5.08463420e-02f,
    -1.32827461e-02f, -3.86793911e-02f, -4.21377867e-02f, -3.75152528e-02f, 2.63939193e-03f, 7.18993172e-02f, 4.73839715e-02f, 1.57754663e-02f,
    -3.50518487e-02f, -7.82154948e-02f, -3.79385240e-03f, -7.17190355e-02f, -1.92497130e-02f, -7.01556280e-02f, -1.38414651e-01f, -1.92076445e-01f,
    -2.08264753e-01f, -1.70817539e-01f, -2.32192092e-02f, 3.81290098e-03f, 1.92382857e-02f, 2.37790402e-02f, -3.87733914e-02f, -9.80226099e-02f,
    -8.70125964e-02f, -1.22966625e-01f, -1.04830362e-01f, -4.28963453e-02f, -1.06146969e-01f, -8.70790109e-02f, -1.28196225e-01f, -7.05833733e-02f,
    -4.00600582e-02f, -4.11035120e-02f, 2.83742659e-02f, -6.18964173e-02f, -3.23962197e-02f, -6.77609071e-02f, -6.36225864e-02f, 2.15386413e-03f,
    -3.83354276e-02f, -7.85813928e-02f, -1.80422381e-01f, -1.73963949e-01f, -8.28372687e-02f, -7.32141137e-02f, -2.90223360e-02f, 3.38112079e-02f,
    -1.22972578e-03f, -6.60418943e-02f, -6.98937057e-03f, -1.03391401e-01f, -1.03641525e-01f, -8.00619200e-02f, -3.95607464e-02f, -7.30162039e-02f,
    -7.58987218e-02f, -1.20061539e-01f, -1.19860671e-01f, -1.13987997e-01f, -8.87378827e-02f, 1.36112683e-02f, 7.88105943e-04f, -2.23153010e-02f,
    -3.29508260e-02f, -1.54067827e-02f, -6.73655644e-02f, -4.07050438e-02f, -8.68430883e-02f, -1.11705542e-01f, -1.25615209e-01f, -1.00837097e-01f,
    -1.15673214e-01f, -6.38529733e-02f, 7.74629274e-03f, -3.74350324e-03f, 5.15550748e-03f, -1.79110598e-02f, -1.01766817e-01f, -1.09740406e-01f,
    -6.24254979e-02f, -4.37728465e-02f, -4.10151966e-02f, 1.01726670e-02f, 3.36127356e-02f, -5.17119328e-03f, 6.80830656e-03f, -6.96131736e-02f,
    5.55467512e-03f, 8.45573493e-04f, 3.92461345e-02f, 2.88845003e-02f, -1.08561786e-02f, -1.31549165e-02f, -2.16123704e-02f, -4.33925204e-02f,
    -4.45074439e-02f, -5.17779849e-02f, -1.48048013e-01f, -1.74149230e-01f, -4.68965359e-02f, -2.82327570e-02f, -3.45148072e-02f, -1.88972708e-02f,
    1.98851451e-02f, -2.61572488e-02f, -8.38391855e-02f, -9.94708389e-02f, -1.74948084e-03f, 5.16331345e-02f, 1.91473402e-02f, 3.87225188e-02f,
    2.81617455e-02f, 2.13346854e-02f, -1.76767632e-02f, -2.78161969e-02f, 1.82404239e-02f, -1.45979580e-02f, 2.99360827e-02f, 2.20317934e-02f,
    1.76208131e-02f, -1.28732761e-02f, -6.52962998e-02f, -5.41323386e-02f, -7.32331574e-02f, -9.66944024e-02f, -6.20700382e-02f, -3.59170921e-02f,
    -4.50430363e-02f, -1.73572265e-02f, 1.95224285e-02f, -2.30613872e-02f, 2.38897167e-02f, -1.01888441e-02f, -3.63991819e-02f, -1.37078539e-01f,
    -1.45378690e-02f, 3.68239060e-02f, 2.48407703e-02f, 5.48770279e-02f, 1.87118035e-02f, -9.55309533e-03f, -5.62536046e-02f, -5.26959375e-02f,
    -3.05189863e-02f, 1.65865272e-02f, -1.46954758e-02f, 1.04061263e-02f, -3.15797180e-02f, 3.03001087e-02f, -3.11577786e-02f, -1.96999442e-02f,
    -5.58114983e-02f, 5.77856041e-03f, -2.64931675e-02f, -5.79720475e-02f, -4.53209616e-02f, -1.00929923e-01f, -5.02108305e-04f, -1.63684413e-03f,
    3.53053473e-02f, 8.92210007e-03f, -2.10930221e-02f, -1.89256447e-03f, -5.09389639e-02f, 8.06560367e-02f, 6.84777573e-02f, 6.53496310e-02f,
    7.00973868e-02f, 3.39592695e-02f, 6.00755736e-02f, 1.98461097e-02f, -4.73185964e-02f, -2.45959088e-02f, -6.95289150e-02f, -9.41179972e-03f,
    -3.79396193e-02f, -4.97402810e-02f, 9.69075132e-03f, 6.32320717e-02f, 5.10348752e-02f, 1.48881960e-03f, 2.03590803e-02f, -1.70932319e-02f,
    -8.79466906e-02f, -2.57654916e-02f, 3.12041156e-02f, -2.26091631e-02f, 3.16340066e-02f, 3.22357602e-02f, -2.88632996e-02f, -4.75229789e-03f,
    6.76937327e-02f, 1.16743632e-01f, 1.58593040e-02f, 9.89384726e-02f, 6.49234056e-02f, 5.88219799e-02f, 1.65253654e-02f, 4.67487909e-02f,
    4.97251004e-02f, 3.01478151e-02f, 3.45211737e-02f, -1.29196877e-02f, 3.79129797e-02f, -1.16962800e-02f, 8.80720615e-02f, 8.88139233e-02f,
    1.11632869e-01f, 1.21490613e-01f, 7.55075924e-03f, -3.07795834e-02f, -5.82570676e-03f, 2.04955563e-02f, -2.25836262e-02f, -2.37778481e-02f,
    3.55052091e-02f, -1.81554053e-02f, 3.10985260e-02f, 2.66321860e-02f, 9.02132913e-02f, 1.07019737e-01f, 5.97071797e-02f, 1.22108489e-01f,
    9.40319970e-02f, 1.08918332e-01f, 1.13473013e-01f, 1.02756284e-01f, 2.00994425e-02f, 1.05906367e-01f, 1.43783942e-01f, 9.44750458e-02f,
    8.79752189e-02f, 1.09928638e-01f, 1.25518858e-01f, 1.06562585e-01f, 8.49277377e-02f, 6.82914779e-02f, 1.15602138e-02f, 5.67552410e-02f,
    -1.52425095e-02f, 2.51471065e-02f, 2.78205536e-02f, -1.65642593e-02f, -9.54354368e-03f, -2.65164226e-02f, -2.28506811e-02f, -3.09392773e-02f,
    1.93829462e-03f, 5.94756845e-03f, 1.27573393e-03f, 4.83484864e-02f, 6.55854717e-02f, 5.25117889e-02f, 1.05394237e-01f, 2.85119116e-02f,
    4.20768037e-02f, 6.76629022e-02f, 9.95975658e-02f, 1.16813459e-01f, 4.32180278e-02f, 1.12203382e-01f, 8.88418928e-02f, 5.31323887e-02f,
    5.99982850e-02f, 2.34008655e-02f, 5.26870266e-02f, 7.86520541e-05f, -1.39247999e-03f, 2.22973786e-02f, 3.78335267e-03f, 2.82963775e-02f,
    4.94467095e-03f, -5.12351282e-03f, 2.91189291e-02f, -3.51363495e-02f, -1.70944259e-02f, -6.01809472e-04f, 1.48607641e-02f, -2.46111304e-04f,
    -2.08348893e-02f, -8.16948153e-03f, 1.29438974e-02f, 1.69212408e-02f, 1.17984004e-02f, 3.23286317e-02f, 3.42940763e-02f, 3.17294523e-03f,
    -1.21111665e-02f, -1.19635556e-02f, -3.28690410e-02f, 3.31531838e-03f, 2.76612975e-02f, -2.46759243e-02f, -3.34510393e-02f, -2.48853117e-03f,
    -1.65021215e-02f, -2.51862798e-02f, 9.28656757e-03f, -3.23723629e-02f, -2.08658036e-02f, -3.54545489e-02f, 2.97064893e-02f, 6.01324439e-03f,
    3.19267996e-02f, -2.53864024e-02f, 3.68292667e-02f, 1.07416771e-01f, 1.11385629e-01f, 8.73642564e-02f, 1.02068953e-01f, 5.19667603e-02f,
    1.21080101e-01f, 1.11510843e-01f, 6.21487163e-02f, 6.78728297e-02f, 1.28007829e-01f, 6.92105889e-02f, 1.03508785e-01f, 1.40456602e-01f,
    6.18268996e-02f, 7.16596320e-02f, 4.69353162e-02f, 6.07450977e-02f, 4.32919338e-03f, -3.02901193e-02f, -3.64298746e-03f, 3.18946354e-02f,
    2.48836316e-02f, -7.32040033e-03f, -3.37240845e-03f, 3.16306315e-02f, -1.85858440e-02f, -3.56726907e-02f, 9.15951133e-02f, 1.55504122e-01f,
    1.23819664e-01f, 2.01424167e-01f, 2.35086337e-01f, 2.01944396e-01f, 2.02944115e-01f, 1.67950362e-01f, 1.55142769e-01f, 1.99741736e-01f,
    2.22397938e-01f, 1.77360177e-01f, 1.08550772e-01f, 1.08505465e-01f, 9.48273316e-02f, 1.37807369e-01f, 8.01150948e-02f, 8.41149315e-02f,
    7.45099187e-02f, 6.00594170e-02f, 3.34750488e-03f, 2.38328390e-02f, 7.54311681e-03f, 1.78583823e-02f, 1.77629292e-02f, -8.36655498e-03f,
    -6.41369820e-03f, -5.48686422e-02f, 9.41160694e-02f, 8.35825577e-02f, 5.29499054e-02f, 1.82124764e-01f, 1.44933835e-01f, 8.03562105e-02f,
    1.59129113e-01f, 1.43030331e-01f, 7.69584477e-02f, 1.14284784e-01f, 5.18635996e-02f, 3.43915001e-02f, 2.62278486e-02f, 5.30144386e-02f,
    -1.70399621e-02f, 3.69882435e-02f, 3.16527598e-02f, 5.84390946e-04f, 7.71837234e-02f, -2.28154100e-03f, 1.05234236e-03f, -1.75632909e-03f,
    1.75006911e-02f, -3.01848575e-02f, 3.07479184e-02f, 1.62409246e-02f, -5.53353876e-02f, -3.88008654e-02f, 8.61271173e-02f, 2.06212588e-02f,
    7.18925670e-02f, 4.77219187e-02f, 6.61630481e-02f, 6.54974058e-02f, 5.03185540e-02f, 4.14270014e-02f, 2.64457222e-02f, 3.07009090e-02f,
    2.53432337e-02f, 3.85085903e-02f, 2.58382279e-02f, 2.06570923e-02f, 2.12100311e-03f, -7.35237896e-02f, -6.25503808e-02f, 9.87860281e-03f,
    -4.90284339e-02f, -7.49686384e-04f, -6.97447807e-02f, 1.03049539e-02f, -2.67766342e-02f, -9.82878171e-03f, -1.76311359e-02f, -3.20244133e-02f,
    -1.16204834e-02f, -5.95368408e-02f, 4.37806249e-02f, -1.03235971e-02f, 1.50792310e-02f, 4.47368026e-02f, 3.44867185e-02f, -1.09781614e-02f,
    -1.75637640e-02f, 5.81826037e-03f, 4.27931100e-02f, 1.01649314e-02f, 4.12499122e-02f, 1.75651405e-02f, 4.39472795e-02f, -3.42392270e-03f,
    -2.43940987e-02f, 1.02702370e-02f, -5.23243286e-03f, 2.01933086e-02f, -9.79760662e-03f, -6.41440526e-02f, 3.29179727e-02f, -6.01951592e-03f,
    3.24197374e-02f, -1.67850479e-02f, -8.38419124e-02f, -4.13444936e-02f, -1.05659992e-01f, -3.71741056e-02f, -2.24708263e-02f, 1.91056821e-02f,
    -4.74049002e-02f, 4.06028368e-02f, -2.07018275e-02f, -1.27965575e-02f, 3.32861058e-02f, 1.55128445e-02f, 1.45124327e-02f, 6.13494702e-02f,
    5.01976646e-02f, -2.27188282e-02f, 2.86571290e-02f, -9.04317573e-03f, -5.79910120e-03f, -5.74315414e-02f, -6.15496673e-02f, -3.21775340e-02f,
    -4.25786637e-02f, -4.21501547e-02f, -2.66994024e-03f, 2.99028754e-02f, -9.67161544e-03f, 3.81072126e-02f, 6.83626905e-02f, -8.61798525e-02f,
    -5.61995544e-02f, -3.65300402e-02f, -4.63624150e-02f, -7.45571032e-02f, -2.25796141e-02f, -8.42377450e-03f, 3.82758267e-02f, 7.17485100e-02f,
    -4.50993516e-03f, 2.24344451e-02f, 4.76720296e-02f, -1.44224204e-02f, 9.69636999e-03f, -2.31461208e-02f, -2.53662989e-02f, -6.84601367e-02f,
    -4.61244844e-02f, -3.03279646e-02f, -5.17494641e-02f, -1.50025338e-01f, -1.38360679e-01f, -1.22296043e-01f, -3.30540352e-02f, -7.62066767e-02f,
    -1.29500590e-02f, 5.89943212e-03f, -4.03420217e-02f, -9.96860191e-02f, -2.79424563e-02f, -7.35532641e-02f, -6.17177002e-02f, -4.61306758e-02f,
    -5.08480892e-02f, -1.22115277e-02f, 5.00128679e-02f, 2.63057817e-02f, 5.90895116e-02f, 2.40533333e-02f, -2.20751949e-03f, 3.64376977e-02f,
    -5.28245270e-02f, -1.86947566e-02f, -7.58091956e-02f, -6.82845116e-02f, -2.11876612e-02f, -1.32042944e-01f, -6.41293973e-02f, -7.78427348e-02f,
    -2.89491743e-01f, -2.09435105e-01f, -1.47152469e-01f, -8.40660930e-02f, -5.79467416e-03f, 3.71583551e-02f, -2.24747527e-02f, -3.48908044e-02f,
    -2.88887732e-02f, -2.71383580e-02f, -6.02283217e-02f, -9.81184244e-02f, -3.71692143e-02f, -9.89396591e-03f, -1.80827435e-02f, -4.52599451e-02f,
    -6.98025450e-02f, -7.10155070e-02f, 3.99221778e-02f, -1.20503120e-02f, -2.83913631e-02f, -1.00455090e-01f, -1.36788860e-01f, -1.74032286e-01f,
    -1.25996128e-01f, -5.38076051e-02f, -6.88275993e-02f, -1.04717538e-01f, -1.17367245e-01f, -1.59914404e-01f, -8.07759464e-02f, 5.87534122e-02f,
    1.73449554e-02f, 2.22937874e-02f, 4.30185385e-02f, -9.34888721e-02f, -1.37114033e-01f, -7.56489560e-02f, -9.93888751e-02f, -1.05915874e-01f,
    -9.89482850e-02f, -1.14355482e-01f, -1.14530802e-01f, -1.46099046e-01f, -1.71204656e-01f, -1.46207809e-01f, -4.03834172e-02f, 1.41668469e-02f,
    1.01277875e-02f, -6.80995658e-02f, -1.02081239e-01f, -8.41586068e-02f, -4.85844985e-02f, -3.99986170e-02f, -2.47882772e-02f, 3.26310582e-02f,
    1.98074616e-02f, 5.10073714e-02f, 1.14633171e-02f, -5.64037450e-02f, -3.57001983e-02f, -1.99113786e-02f, -3.98108698e-02f, -1.20334670e-01f,
    -1.57249287e-01f, -1.35035425e-01f, -1.94978699e-01f, -1.40957877e-01f, -1.81880429e-01f, -2.22284794e-01f, -2.49884456e-01f, -1.83637828e-01f,
    -2.21197218e-01f, -1.41969070e-01f, -4.54846099e-02f, -4.16992866e-02f, -1.44893611e-02f, -1.36949003e-01f, -1.16884060e-01f, -4.19214591e-02f,
    -2.92493161e-02f, -2.26944406e-03f, 1.25115383e-02f, 8.85653272e-02f, 7.98625648e-02f, -3.36779058e-02f, -1.56186402e-01f, 7.99120124e-03f,
    5.86175174e-03f, -3.12715769e-02f, -8.36399570e-02f, -6.74268007e-02f, -1.44830227e-01f, -1.74769625e-01f, -2.41488412e-01f, -2.17247829e-01f,
    -2.02766001e-01f, -2.63394475e-01f, -1.99696317e-01f, -2.45331541e-01f, -1.54122382e-01f, -5.31370640e-02f, 5.56788333e-02f, 5.02212830e-02f,
    6.64394873e-04f, -1.04155064e-01f, -1.06507853e-01f, -5.87115623e-02f, -1.30109936e-02f, 2.62955371e-02f, -2.19593532e-02f, 2.30719266e-03f,
    1.34301692e-01f, 8.44134241e-02f, 1.25418812e-01f, -1.94441667e-03f, -1.35375056e-02f, -4.49675992e-02f, -7.11084232e-02f, -5.34686819e-02f,
    -2.13432387e-01f, -1.96366757e-01f, -2.74280727e-01f, -2.58030087e-01f, -2.16545820e-01f, -1.88268915e-01f, -1.18522048e-01f, -6.54135719e-02f,
    1.06651783e-01f, 1.40895769e-01f, 1.60268441e-01f, 1.05949186e-01f, -2.96478625e-02f, -7.42652044e-02f, -8.10629204e-02f, -3.99641134e-02f,
    -1.39486529e-02f, 4.44891937e-02f, 2.55156886e-02f, 7.62239993e-02f, 1.98163077e-01f, 1.60342023e-01f, 8.97076800e-02f, 8.37178901e-02f,
    -2.93283910e-02f, 9.42427665e-03f, -4.68981192e-02f, -3.03417761e-02f, -1.79722115e-01f, -1.29158273e-01f, -9.50731859e-02f, -2.84133367e-02f,
    -3.69034819e-02f, -4.57280688e-03f, 1.56800039e-02f, 1.42930180e-01f, 1.90374449e-01f, 2.11558506e-01f, 1.79336742e-01f, 1.55733258e-01f,
    7.67091960e-02f, -7.14368373e-02f, 2.28157658e-02f, 3.41234282e-02f, 6.59354851e-02f, 4.98907939e-02f, 5.94128370e-02f, 9.11711156e-02f,
    1.28048658e-01f, 1.48892522e-01f, 1.34724915e-01f, -1.88746881e-02f, 2.52441168e-02f, -2.62522623e-02f, -1.01620749e-01f, -1.36035937e-03f,
    -1.43226190e-02f, 5.22242785e-02f, 8.59673023e-02f, 3.95609327e-02f, 6.75785094e-02f, 4.65681739e-02f, 8.01029950e-02f, 1.98150262e-01f,
    2.01575398e-01f, 2.53538817e-01f, 1.88995302e-01f, 8.21432322e-02f, 3.69083844e-02f, 5.13596646e-03f, 4.36963886e-02f, 5.89562058e-02f,
    -1.69553235e-02f, 7.13097751e-02f, 9.04939589e-05f, -3.08014136e-02f, 1.82497859e-01f, 1.71658084e-01f, 1.18190877e-01f, 1.96840912e-02f,
    -3.06927618e-02f, 2.43412331e-03f, -4.00792770e-02f, 3.78008150e-02f, 7.17697516e-02f, 1.04718164e-01f, 1.24519929e-01f, 1.12870015e-01f,
    5.51383309e-02f, 1.30632937e-01f, 1.42820925e-01f, 1.81873769e-01f, 2.26147071e-01f, 2.11469457e-01f, 1.28573641e-01f, 4.59023267e-02f,
    4.65475842e-02f, 2.83578467e-02f, 4.31115478e-02f, 1.05164954e-02f, 5.08774035e-02f, 9.17540491e-02f, 2.84687132e-02f, -3.93952290e-03f,
    1.06473714e-01f, 2.58412033e-01f, 1.45607233e-01f, 1.16224051e-01f, -3.47490199e-02f, -3.04931998e-02f, 7.96045735e-03f, 5.28672412e-02f,
    1.05640799e-01f, 1.22616693e-01f, 1.50298893e-01f, 1.06766447e-01f, 6.99229836e-02f, 8.44648853e-02f, 1.43398598e-01f, 1.31815270e-01f,
    8.11009556e-02f, 1.26370043e-01f, 7.89443403e-02f, 1.39915920e-03f, -2.08502403e-03f, 1.28340786e-02f, 3.64414938e-02f, 5.51029406e-02f,
    7.62307495e-02f, -1.20284837e-02f, 3.86348702e-02f, 4.85026948e-02f, 8.51293802e-02f, 2.28379935e-01f, 1.83095649e-01f, 7.65922293e-03f,
    -7.39485957e-03f, 2.67757499e-03f, 3.66535783e-03f, 3.45262587e-02f, 7.78974146e-02f, 7.08381161e-02f, 8.50555375e-02f, 1.27337113e-01f,
    1.17535144e-01f, 1.02991179e-01f, 6.48814067e-02f, 4.00303006e-02f, 1.56620577e-01f, 7.94089213e-02f, 6.05109408e-02f, 1.22203743e-02f,
    2.16880850e-02f, 1.16807722e-01f, 6.60284311e-02f, 5.18545434e-02f, 4.06818651e-02f, 6.03954792e-02f, 3.95126678e-02f, 7.60390759e-02f,
    2.14419499e-01f, 2.60867596e-01f, 5.53128235e-02f, 3.79081704e-02f, -9.46952589e-03f, 6.37569791e-03f, -8.64937529e-03f, 1.32334409e-02f,
    8.06967989e-02f, 1.75671596e-02f, 7.23914616e-03f, 9.58083346e-02f, 5.48128337e-02f, 7.34866336e-02f, 4.00917158e-02f, 1.00171961e-01f,
    9.63324830e-02f, 6.04686700e-02f, 5.43101504e-02f, 4.92049642e-02f, 2.54912805e-02f, 9.05759633e-02f, 2.51969881e-02f, -3.16431597e-02f,
    1.72004122e-02f, 1.34718427e-02f, 7.81098679e-02f, 1.77426897e-02f, 3.28720920e-02f, 1.51761129e-01f, 1.25316694e-01f, 1.36694154e-02f,
    -3.06702405e-02f, -4.20362353e-02f, -4.85027023e-02f, 3.09385955e-02f, 8.58202353e-02f, 1.11981584e-02f, 1.29060643e-02f, 8.39733630e-02f,
    9.16332081e-02f, 7.08456337e-02f, 6.04738593e-02f, 1.43893491e-02f, 2.76014060e-02f, -1.00867439e-03f, 3.85900848e-02f, 1.33566735e-02f,
    3.65241468e-02f, -1.61064398e-02f, -8.34243093e-03f, -1.42256962e-02f, 1.85638648e-02f, -2.33997181e-02f, -2.02750191e-02f, 2.93364152e-02f,
    4.15004417e-02f, 8.89547765e-02f, 7.34894797e-02f, 3.22347246e-02f, -3.03943940e-02f, 2.63741929e-02f, 4.16703969e-02f, 1.03031591e-01f,
    6.31438568e-02f, 3.17705385e-02f, 6.89451583e-03f, 3.48096825e-02f, 9.09625590e-02f, 3.48548219e-02f, 5.56003675e-02f, 5.16829900e-02f,
    1.77453030e-02f, -1.32029885e-02f, 3.61258462e-02f, 2.78383996e-02f, -2.63201706e-02f, 1.62760988e-02f, -5.34136873e-03f, 2.19553094e-02f,
    -2.15199534e-02f, -1.80320404e-02f, -6.31680014e-03f, 2.89774146e-02f, 3.77429985e-02f, 1.15588315e-01f, 3.19814309e-03f, -1.89435408e-02f,
    7.14094937e-03f, 1.70155913e-02f, 1.37157990e-02f, 6.15112185e-02f, 8.68916363e-02f, 7.99012259e-02f, 1.49295442e-02f, 1.61404070e-02f,
    2.09883470e-02f, 8.20685085e-03f, -2.95132007e-02f, 1.88115817e-02f, -1.02769036e-03f, -2.90693305e-02f, -6.68967366e-02f, -2.07017399e-02f,
    -6.93031624e-02f, -2.77401116e-02f, -3.07769403e-02f, -4.52275164e-02f, 8.82126670e-03f, -4.02653702e-02f, -1.25167761e-02f, -8.02324489e-02f,
    8.33090208e-03f, 5.21702282e-02f, 2.11344212e-02f, 2.66391300e-02f, 3.38556506e-02f, 2.25603916e-02f, -3.90519388e-03f, -1.23516999e-01f,
    -1.15726190e-02f, 3.04633304e-02f, -2.21047960e-02f, -3.59921791e-02f, -3.01628597e-02f, -4.20385897e-02f, -6.03425093e-02f, -1.98765062e-02f,
    -1.65135488e-02f, -3.75898369e-02f, -4.78868932e-02f, 1.36634184e-03f, -6.19848482e-02f, -6.82580546e-02f, -8.53495151e-02f, -2.71741860e-02f,
    -1.74201149e-02f, -2.16629487e-02f, 1.97356753e-03f, -5.78288585e-02f, -1.25344675e-02f, 3.80670168e-02f, 2.20025871e-02f, 9.31200013e-03f,
    -6.08973205e-04f, -1.73263811e-02f, -7.31604025e-02f, -9.93020311e-02f, -6.76194206e-02f, -1.20284945e-01f, -1.29841074e-01f, -1.60541818e-01f,
    -9.49259326e-02f, -1.01674251e-01f, -1.19932033e-01f, -4.20217477e-02f, -5.02270050e-02f, -2.01068502e-02f, -3.82435471e-02f, -7.09521174e-02f,
    -3.46174352e-02f, -3.87060903e-02f, -1.09793894e-01f, -1.23652592e-01f, -7.32474923e-02f, -3.65196392e-02f, -3.16904671e-02f, -1.23154804e-01f,
    3.12887281e-02f, 5.83907180e-02f, 2.22928040e-02f, -3.27646956e-02f, -6.38725981e-03f, -5.94953075e-03f, 2.34096646e-02f, -4.54375586e-05f,
    8.93820822e-03f, -1.43262029e-01f, -1.59283653e-01f, -1.88106507e-01f, -1.60122618e-01f, -1.27691969e-01f, -1.78957820e-01f, -1.47849172e-01f,
    -6.79016933e-02f, -1.73950881e-01f, -1.64724395e-01f, -1.13518976e-01f, -1.52661026e-01f, -1.56865105e-01f, -2.52970695e-01f, -2.14348733e-01f,
    -9.98709276e-02f, -1.09600477e-01f, -5.20716012e-02f, -6.07566573e-02f, 9.48978309e-03f, -1.11830458e-02f, 2.92894654e-02f, -1.50853693e-02f,
    6.94696978e-03f, 2.65838243e-02f, 3.24339382e-02f, 1.10062584e-02f, -4.77264300e-02f, -4.43832166e-02f, -7.60568753e-02f, -5.07376306e-02f,
    -1.18808210e-01f, -2.41078399e-02f, -6.72743749e-03f, -2.69562453e-02f, -9.65053737e-02f, -1.11113086e-01f, -9.64070633e-02f, -6.73270002e-02f,
    -1.86715573e-01f, -1.95780993e-01f, -1.82569250e-01f, -1.23527415e-01f, -1.43436104e-01f, -1.08433202e-01f, -6.25003651e-02f, -2.23130044e-02f,
    1.68021396e-02f, -2.48595066e-02f, 2.57561132e-02f, -8.04446824e-03f, 1.78604461e-02f, 3.57804820e-03f, -1.24419890e-02f, 3.49259935e-02f,
    2.13724300e-02f, -3.60488296e-02f, -8.77057388e-03f, 4.61758561e-02f, -3.97362560e-03f, -1.45441499e-02f, 1.69532988e-02f, 2.72893924e-02f,
    -4.65924554e-02f, -1.60064641e-02f, 1.74394529e-02f, -2.42332369e-02f, 3.70551366e-03f, -3.50407255e-03f, -6.69081062e-02f, -3.43541019e-02f,
    -3.76824327e-02f, -3.87937762e-02f, -6.01470936e-03f, -1.14726480e-02f, 2.39560939e-02f, 1.38149895e-02f, 2.16975063e-02f, 3.50086205e-02f,
    -8.50349292e-03f, -1.31212231e-02f, 3.11665498e-02f, -2.90348008e-03f, 8.98107141e-03f, -3.37749831e-02f, 2.26377696e-02f, 1.71256401e-02f,
    -4.52584028e-03f, -1.72723718e-02f, 3.53374593e-02f, 2.97350548e-02f, -1.99455768e-04f, -1.11789135e-02f, 4.37963121e-02f, 3.28944959e-02f,
    -2.31599808e-03f, 1.50387660e-02f, 3.12436000e-03f, 2.19839811e-02f, 6.01667911e-04f, 2.60377191e-02f, -9.99165885e-03f, -9.35952552e-03f,
    -1.07776653e-02f, -1.97929107e-02f, -1.97358858e-02f, 1.97843760e-02f, 3.03940587e-02f, 1.53551139e-02f, -2.74608657e-03f, 1.79615840e-02f,
    3.21075134e-02f, -2.73381099e-02f, -8.61134753e-03f, 7.20106065e-03f, 8.42566509e-03f, -3.99006344e-02f, -2.53905877e-02f, -1.04741084e-05f,
    -3.27039286e-02f, -5.13987616e-02f, 2.47935895e-02f, -1.67867709e-02f, 8.28641057e-02f, -5.67731895e-02f, -4.45779227e-02f, -3.72951627e-02f,
    -1.32521391e-02f, -3.85547653e-02f, -4.05593291e-02f, -1.76426452e-02f, -2.86463127e-02f, 1.48635432e-02f, -7.81659968e-03f, -1.46626700e-02f,
    -2.07835622e-02f, -1.68566238e-02f, -2.72802170e-02f, -4.37925011e-03f, 5.36515098e-03f, -2.69343350e-02f, -1.30063677e-02f, -2.55621318e-02f,
